{
    "type": "LSTM",
    "options": {
        "inputSize": 29,
        "inputRange": 29,
        "hiddenLayers": [
            20,
            20
        ],
        "outputSize": 29,
        "decayRate": 0.999,
        "smoothEps": 1e-8,
        "regc": 0.000001,
        "clipval": 5,
        "maxPredictionLength": 100,
        "dataFormatter": {
            "indexTable": {
                "J": 0,
                "a": 1,
                "n": 2,
                "e": 3,
                " ": 4,
                "s": 5,
                "w": 6,
                "D": 7,
                "o": 8,
                "u": 9,
                "g": 10,
                ".": 11,
                "S": 12,
                "p": 13,
                "t": 14,
                "d": 15,
                "l": 16,
                "k": 17,
                "i": 18,
                "c": 19,
                "h": 20,
                "r": 21,
                "I": 22,
                "v": 23,
                "f": 24,
                ",": 25,
                "y": 26,
                "m": 27,
                "unrecognized": 28
            },
            "characterTable": {
                "0": "J",
                "1": "a",
                "2": "n",
                "3": "e",
                "4": " ",
                "5": "s",
                "6": "w",
                "7": "D",
                "8": "o",
                "9": "u",
                "10": "g",
                "11": ".",
                "12": "S",
                "13": "p",
                "14": "t",
                "15": "d",
                "16": "l",
                "17": "k",
                "18": "i",
                "19": "c",
                "20": "h",
                "21": "r",
                "22": "I",
                "23": "v",
                "24": "f",
                "25": ",",
                "26": "y",
                "27": "m",
                "28": null
            },
            "values": [
                "Jane saw Doug.",
                "Doug saw Jane.",
                "Spot saw Doug and Jane looking at each other.",
                "It was love at first sight, and Spot had a frontrow seat. It was a very special moment for all."
            ],
            "characters": [
                "J",
                "a",
                "n",
                "e",
                " ",
                "s",
                "w",
                "D",
                "o",
                "u",
                "g",
                ".",
                "S",
                "p",
                "t",
                "d",
                "l",
                "k",
                "i",
                "c",
                "h",
                "r",
                "I",
                "v",
                "f",
                ",",
                "y",
                "m",
                "unrecognized"
            ],
            "specialIndexes": [
                28
            ]
        }
    },
    "trainOpts": {
        "iterations": 1500,
        "errorThresh": 0.011,
        "log": false,
        "logPeriod": 10,
        "learningRate": 0.01,
        "callbackPeriod": 10,
        "timeout": "Infinity"
    },
    "input": {
        "rows": 30,
        "columns": 29,
        "weights": [
            0.3306490182876587,
            0.05224984511733055,
            0.5919240117073059,
            -0.42712315917015076,
            0.03757676109671593,
            0.7337714433670044,
            -0.24660688638687134,
            0.5724340081214905,
            -0.9330808520317078,
            -0.10352113842964172,
            0.38316741585731506,
            0.5251651406288147,
            0.11831922084093094,
            -0.4248879849910736,
            0.12259011715650558,
            -0.2593218684196472,
            0.6857739090919495,
            0.3254012167453766,
            -0.46397387981414795,
            0.5084889531135559,
            0.3046782910823822,
            -0.5189167261123657,
            -0.6951878070831299,
            0.5050685405731201,
            -0.143327996134758,
            -0.3325589597225189,
            0.03709379956126213,
            0.3650725185871124,
            0.23779602348804474,
            -0.41389575600624084,
            -0.48939087986946106,
            -1.7406432628631592,
            0.18853934109210968,
            -1.712094783782959,
            -2.0986695289611816,
            3.030503034591675,
            -0.3121080696582794,
            -0.11622001230716705,
            0.14953674376010895,
            -0.4149729609489441,
            -1.8653602600097656,
            -1.5446583032608032,
            2.294764518737793,
            -0.8506419658660889,
            -0.15115408599376678,
            0.12590058147907257,
            0.013387246988713741,
            2.5345678329467773,
            -0.3423871397972107,
            -1.038647174835205,
            2.2494678497314453,
            -0.42433005571365356,
            -0.5550395846366882,
            -1.2211363315582275,
            0.32575228810310364,
            0.22720594704151154,
            -1.684180736541748,
            -1.8827534914016724,
            1.0279123783111572,
            0.7869042158126831,
            -0.6678803563117981,
            -0.8062576055526733,
            1.0718979835510254,
            0.8218564987182617,
            -1.2832366228103638,
            0.8525788187980652,
            1.0649538040161133,
            0.5798070430755615,
            1.3367148637771606,
            1.097121238708496,
            0.805838406085968,
            -1.094406008720398,
            0.11483395844697952,
            -0.2659890949726105,
            0.37048977613449097,
            -0.5575659275054932,
            -0.8413260579109192,
            0.20452341437339783,
            -0.7442685961723328,
            -0.8437505960464478,
            0.3975456655025482,
            0.9399619102478027,
            -0.3345230519771576,
            -0.4056228697299957,
            1.4055087566375732,
            0.47140824794769287,
            0.6581246852874756,
            0.10887182503938675,
            0.6640817523002625,
            -0.33838561177253723,
            -0.8649440407752991,
            1.7291570901870728,
            0.14502540230751038,
            -1.7494930028915405,
            0.4154180586338043,
            0.8687383532524109,
            0.2437700778245926,
            1.0231690406799316,
            1.3074290752410889,
            0.9745796322822571,
            -1.3615328073501587,
            -0.36999058723449707,
            -1.2341755628585815,
            1.2522834539413452,
            -1.1317676305770874,
            -0.3372005224227905,
            0.29915955662727356,
            -0.31974780559539795,
            -0.7850279211997986,
            -0.24526946246623993,
            0.036305978894233704,
            0.007989396341145039,
            0.02314489334821701,
            1.4995695352554321,
            1.5653434991836548,
            1.3436440229415894,
            -0.32099148631095886,
            -0.774181604385376,
            1.2273730039596558,
            0.42583441734313965,
            -0.4136476516723633,
            -0.10499723255634308,
            0.543412446975708,
            -0.22043591737747192,
            -0.7526794672012329,
            -0.968207597732544,
            -1.157360315322876,
            -0.2625219225883484,
            -0.1119692474603653,
            -0.06315518170595169,
            -1.4414170980453491,
            0.7712730169296265,
            1.0781233310699463,
            0.3461936414241791,
            0.15899309515953064,
            0.9062889218330383,
            1.0205775499343872,
            0.04986616224050522,
            -1.222637414932251,
            0.1887921392917633,
            -0.6792293787002563,
            0.3309193253517151,
            -0.42009544372558594,
            -0.30905333161354065,
            -0.31579262018203735,
            0.19481796026229858,
            0.23843799531459808,
            0.6478303074836731,
            0.6032123565673828,
            0.09814760833978653,
            0.36905449628829956,
            -0.3158354163169861,
            0.3149847984313965,
            -0.22619810700416565,
            -0.03787140175700188,
            -0.6284087300300598,
            0.029768167063593864,
            0.1523480862379074,
            0.10172266513109207,
            -0.31327664852142334,
            1.1702866554260254,
            -0.257244735956192,
            -0.44232064485549927,
            -0.13504882156848907,
            -0.3010450303554535,
            0.10075633227825165,
            -0.20701074600219727,
            -0.14195379614830017,
            0.3350764214992523,
            0.11356332898139954,
            -0.27306634187698364,
            0.5736482739448547,
            -0.3980722427368164,
            -0.27908724546432495,
            -0.22597572207450867,
            -0.8320168852806091,
            1.7886464595794678,
            0.45227721333503723,
            -0.22766518592834473,
            0.08331342041492462,
            -0.036754511296749115,
            -0.10920849442481995,
            -1.4243478775024414,
            -0.8280884027481079,
            -1.0792142152786255,
            -0.3756259083747864,
            -0.576592743396759,
            0.4086180627346039,
            0.2632792890071869,
            -0.2713090181350708,
            -0.18495029211044312,
            1.6000723838806152,
            0.757917582988739,
            0.47711601853370667,
            1.1369519233703613,
            0.23407812416553497,
            0.034237269312143326,
            -0.1941567361354828,
            -0.3283604681491852,
            0.020540349185466766,
            -1.1566896438598633,
            -0.43134036660194397,
            0.514586329460144,
            0.8269888162612915,
            -0.080489881336689,
            1.2082518339157104,
            -0.7101122736930847,
            -0.41025444865226746,
            -0.4688676595687866,
            -0.05724683031439781,
            -0.5382459759712219,
            -0.7662127614021301,
            -0.8914702534675598,
            0.037787482142448425,
            0.7132598757743835,
            -0.3498970568180084,
            -0.5753147006034851,
            -0.7115769982337952,
            0.13585513830184937,
            1.236794352531433,
            1.1109068393707275,
            0.6694947481155396,
            2.1730666160583496,
            1.8055630922317505,
            -0.20197908580303192,
            -2.9525258541107178,
            0.07150104641914368,
            -0.2874504625797272,
            0.7123593091964722,
            -2.068413019180298,
            0.43389812111854553,
            0.4412703216075897,
            -0.561601996421814,
            -1.3358893394470215,
            0.2045334130525589,
            0.5770690441131592,
            -0.5569263100624084,
            -0.5995817184448242,
            0.019781295210123062,
            -2.112598180770874,
            -0.5801531672477722,
            -1.7175953388214111,
            -0.9618637561798096,
            -0.3486856520175934,
            -0.049067702144384384,
            0.5764512419700623,
            -2.051809787750244,
            -0.12730713188648224,
            1.8392523527145386,
            -1.2096737623214722,
            1.2310960292816162,
            1.8804467916488647,
            1.0186231136322021,
            0.017727654427289963,
            -2.9556283950805664,
            -1.3479396104812622,
            0.4869491457939148,
            0.09337466210126877,
            -0.21035431325435638,
            0.06690464168787003,
            -0.37443992495536804,
            -0.3774694502353668,
            0.46596792340278625,
            -0.7093732357025146,
            0.30073171854019165,
            -0.08647602051496506,
            -0.012183300219476223,
            -0.40120741724967957,
            -1.3178085088729858,
            1.1637035608291626,
            -0.13460956513881683,
            -1.4870954751968384,
            -0.5395519733428955,
            0.9535460472106934,
            -0.23538337647914886,
            -1.273667812347412,
            -0.5566544532775879,
            0.9723610281944275,
            -3.0700879096984863,
            -0.5362846851348877,
            0.5428409576416016,
            -0.5182003378868103,
            0.09714870154857635,
            -0.4947502315044403,
            -0.01989811658859253,
            -0.5655190348625183,
            -0.29614147543907166,
            1.3508917093276978,
            -0.4768173098564148,
            -0.6385349631309509,
            -1.4528729915618896,
            -0.9500957727432251,
            -0.18962283432483673,
            2.287872314453125,
            -0.6807839870452881,
            -3.7162396907806396,
            0.588844895362854,
            -0.565518856048584,
            -0.7256239056587219,
            -0.8630149364471436,
            0.32209205627441406,
            -0.9563243389129639,
            -0.4571499228477478,
            1.366041898727417,
            -0.8700160384178162,
            -0.6226381063461304,
            0.73350590467453,
            2.28810715675354,
            0.6488863825798035,
            -0.0840168446302414,
            -0.09206380695104599,
            1.8129788637161255,
            -0.586605966091156,
            -2.306912422180176,
            -0.39432162046432495,
            0.5252761244773865,
            -0.8692907691001892,
            -1.256239891052246,
            -1.211205005645752,
            -0.8225854635238647,
            -1.496017336845398,
            1.614656925201416,
            0.4883200526237488,
            0.5137968063354492,
            -0.3045400083065033,
            -0.03926260769367218,
            -0.60545814037323,
            -1.6792701482772827,
            -0.8630586266517639,
            -0.0703868567943573,
            -0.44717296957969666,
            0.055338382720947266,
            0.5712656378746033,
            0.523661196231842,
            0.8344924449920654,
            -0.9921023845672607,
            0.3249568045139313,
            -0.024380113929510117,
            0.06141188368201256,
            0.9846880435943604,
            0.13900454342365265,
            -0.8377352356910706,
            -0.8048844337463379,
            -0.038955412805080414,
            0.22903482615947723,
            -0.3658277690410614,
            0.7750958204269409,
            0.3549632132053375,
            -0.3642841577529907,
            1.1026229858398438,
            -0.5645975470542908,
            -0.061831019818782806,
            0.07346128672361374,
            -0.09645058214664459,
            -0.25698694586753845,
            -0.469946026802063,
            1.6141992807388306,
            0.007007078733295202,
            -0.15315848588943481,
            0.0004903851076960564,
            0.53251051902771,
            -0.6438811421394348,
            -1.15822434425354,
            -2.0682263374328613,
            2.096967935562134,
            -1.5822861194610596,
            -0.44005659222602844,
            0.7583529353141785,
            -0.40403616428375244,
            0.059376828372478485,
            -0.22096355259418488,
            -0.2502192258834839,
            -0.6318602561950684,
            -0.4374369978904724,
            0.5490538477897644,
            0.07248123735189438,
            -0.34832602739334106,
            2.048853874206543,
            2.010525941848755,
            -1.4190802574157715,
            -2.5180275440216064,
            0.47869110107421875,
            2.700519323348999,
            0.8345338702201843,
            1.3378303050994873,
            1.9955555200576782,
            1.0202323198318481,
            0.09076070785522461,
            0.8182252049446106,
            1.5621612071990967,
            -1.0570878982543945,
            1.2307838201522827,
            1.3375248908996582,
            -0.8503846526145935,
            -2.484445571899414,
            -1.599971055984497,
            -0.7259624600410461,
            -1.7698726654052734,
            -1.8442941904067993,
            1.0055904388427734,
            2.5358190536499023,
            1.9431825876235962,
            -2.6931142807006836,
            1.5640562772750854,
            0.4095260798931122,
            -0.4781836271286011,
            -1.3320503234863281,
            0.6198751926422119,
            -0.08755072206258774,
            1.7699694633483887,
            -1.9518249034881592,
            -1.3313647508621216,
            2.430607318878174,
            0.2616618573665619,
            0.32285016775131226,
            0.1846570521593094,
            -0.6801303625106812,
            -1.6212633848190308,
            -1.397900938987732,
            1.066624641418457,
            -0.29122060537338257,
            -2.6478219032287598,
            0.4958922266960144,
            0.7474362254142761,
            0.13004407286643982,
            0.12388412654399872,
            0.07167442888021469,
            1.5838775634765625,
            0.4416862428188324,
            -1.417990803718567,
            -1.3166594505310059,
            0.18238849937915802,
            -1.8780326843261719,
            -2.5932159423828125,
            -2.258341073989868,
            -0.1521703600883484,
            -1.0246440172195435,
            1.9901196956634521,
            -0.012682287022471428,
            1.0419909954071045,
            -0.8571603298187256,
            2.380833148956299,
            0.2433287352323532,
            0.09759049117565155,
            -1.8406561613082886,
            -1.221058964729309,
            -0.20887084305286407,
            0.2872590720653534,
            0.10098305344581604,
            -0.5116597414016724,
            0.8109523057937622,
            0.3811954855918884,
            1.7100796699523926,
            -0.7407881617546082,
            0.5927218794822693,
            1.412569284439087,
            0.2410607635974884,
            -0.253852516412735,
            0.6660258173942566,
            -2.6029388904571533,
            1.1032164096832275,
            0.03408562019467354,
            -0.7717052102088928,
            -0.4995456039905548,
            1.519433617591858,
            -3.7558159828186035,
            2.3248178958892822,
            -1.7526105642318726,
            0.5572916865348816,
            -0.7424721121788025,
            -1.3340423107147217,
            -2.767031669616699,
            -3.485846996307373,
            -1.5114761590957642,
            1.483770728111267,
            1.7072004079818726,
            0.42544326186180115,
            -1.568572998046875,
            -0.1270439475774765,
            -0.6535965204238892,
            2.8238847255706787,
            0.6329099535942078,
            0.21673013269901276,
            4.4533891677856445,
            3.3543813228607178,
            -0.5090596079826355,
            -5.13363790512085,
            -0.7325812578201294,
            -0.42364996671676636,
            1.5356800556182861,
            -4.014603614807129,
            1.8302483558654785,
            1.7694182395935059,
            0.14506880939006805,
            -2.821749210357666,
            1.9810829162597656,
            -0.3817736804485321,
            0.24116306006908417,
            0.11813443899154663,
            -0.9989501237869263,
            -0.3264302909374237,
            -1.422961950302124,
            -2.9992892742156982,
            0.9745519161224365,
            -0.02409621886909008,
            0.4642212986946106,
            0.3456245958805084,
            -0.7181466221809387,
            1.8683290481567383,
            -0.14416423439979553,
            0.714454174041748,
            0.07225986570119858,
            1.0428965091705322,
            2.2489593029022217,
            -0.3529968857765198,
            -1.5729806423187256,
            -0.14665882289409637,
            1.010420799255371,
            0.9056311249732971,
            -0.7188612222671509,
            1.6763904094696045,
            0.9819005727767944,
            -0.42862430214881897,
            0.21340130269527435,
            -0.8670979738235474,
            0.5723413825035095,
            -3.789705514907837,
            -0.2374437153339386,
            3.812030553817749,
            0.46275633573532104,
            0.06039762124419212,
            0.7827863097190857,
            -2.0551905632019043,
            -2.59148907661438,
            -2.243992328643799,
            2.2643346786499023,
            0.6045752167701721,
            -1.6202038526535034,
            -1.224939227104187,
            0.8661262392997742,
            0.33908581733703613,
            -0.86143559217453,
            -0.8152656555175781,
            1.330923318862915,
            0.629883348941803,
            0.07449184358119965,
            -0.09498493373394012,
            -0.404348224401474,
            -1.0021477937698364,
            -2.845351457595825,
            -4.388096332550049,
            0.8058525323867798,
            -0.3483467698097229,
            1.2908294200897217,
            0.27893659472465515,
            1.068623423576355,
            -0.187036395072937,
            -0.6720221638679504,
            -1.2571558952331543,
            -0.3049109876155853,
            -1.8574540615081787,
            0.7058693766593933,
            1.2381585836410522,
            0.7543638944625854,
            -0.6736576557159424,
            -2.8732874393463135,
            1.0009528398513794,
            2.781432628631592,
            -0.5554171204566956,
            -0.8795894980430603,
            1.878137469291687,
            1.8210022449493408,
            -0.4309060871601105,
            -1.3521887063980103,
            0.2161771059036255,
            0.4387286603450775,
            -0.12264283001422882,
            0.08578358590602875,
            0.6764281988143921,
            1.3850352764129639,
            0.9353099465370178,
            -1.962646722793579,
            2.2232179641723633,
            -0.5815309882164001,
            0.8108254671096802,
            0.8293054699897766,
            -1.1237497329711914,
            1.4665871858596802,
            -2.649152994155884,
            -0.7936558723449707,
            0.5895004868507385,
            1.145037055015564,
            0.7276286482810974,
            -0.8169819712638855,
            1.1258653402328491,
            -0.23089288175106049,
            -0.7277697324752808,
            0.27322977781295776,
            -0.9625833630561829,
            1.0694842338562012,
            2.107697010040283,
            -0.7982105016708374,
            -0.07156761735677719,
            0.8103832006454468,
            -0.15610307455062866,
            -0.4823269546031952,
            1.3099825382232666,
            1.549681305885315,
            1.191444993019104,
            2.692612409591675,
            1.530545711517334,
            -0.608971357345581,
            -0.9440475702285767,
            0.8794750571250916,
            2.51265025138855,
            -1.0071289539337158,
            0.34057584404945374,
            1.6773661375045776,
            1.1005343198776245,
            0.5414075255393982,
            0.9724597334861755,
            0.9406594038009644,
            -1.0160123109817505,
            -0.8708048462867737,
            0.781852126121521,
            0.6528661251068115,
            -2.5693893432617188,
            -1.1496150493621826,
            0.7387552857398987,
            -0.9014826416969299,
            -0.844967782497406,
            1.1863720417022705,
            2.5792181491851807,
            -0.028097962960600853,
            -2.6474146842956543,
            2.34906268119812,
            -0.02764168195426464,
            0.17055460810661316,
            1.4733686447143555,
            -0.1655905693769455,
            0.9772366285324097,
            -0.1413402408361435,
            1.1609176397323608,
            1.2616668939590454,
            -3.2343180179595947,
            -0.874696671962738,
            -0.6966524720191956,
            -0.6161043643951416,
            1.2125275135040283,
            1.3081430196762085,
            1.9996901750564575,
            -0.8311572074890137,
            -1.8297096490859985,
            3.068146228790283,
            0.9896429181098938,
            -2.2723917961120605,
            -1.953633189201355,
            -0.2184467762708664,
            0.5341410636901855,
            -1.2081501483917236,
            -0.3635326027870178,
            0.8549503087997437,
            1.9629547595977783,
            -1.339978575706482,
            -0.10707692056894302,
            1.744933843612671,
            2.1374435424804688,
            1.008080005645752,
            1.6883493661880493,
            0.7818024754524231,
            0.07438209652900696,
            0.7629994750022888,
            0.938249945640564,
            -2.048586130142212,
            1.073083758354187,
            1.669100046157837,
            -0.5323958396911621,
            0.12367306649684906,
            1.157539963722229,
            0.820745587348938,
            -1.058051347732544,
            -0.8957390189170837,
            0.15265096724033356,
            1.1120495796203613,
            -1.4286630153656006,
            -1.12465500831604,
            0.9654420614242554,
            0.5860106348991394,
            -0.8343303203582764,
            1.7528605461120605,
            0.9379978775978088,
            0.6574426293373108,
            -1.0934547185897827,
            2.1927995681762695,
            0.3731650710105896,
            0.7608575224876404,
            1.294986367225647,
            2.9279191493988037,
            -3.3742246627807617,
            -2.496940851211548,
            0.8083261847496033,
            1.148219108581543,
            0.978397011756897,
            1.2198036909103394,
            2.490920066833496,
            3.014932632446289,
            2.0094382762908936,
            0.7512800097465515,
            0.6822200417518616,
            -1.0990458726882935,
            2.119762659072876,
            -2.508380651473999,
            -1.7128148078918457,
            -1.901517391204834,
            -0.5959753394126892,
            -2.0564374923706055,
            -3.052900552749634,
            -0.9258618950843811,
            3.0385348796844482,
            2.36867356300354,
            0.6569443345069885,
            -1.1922047138214111,
            -0.1254843771457672,
            -2.6457536220550537,
            -0.14153648912906647,
            0.896358072757721,
            2.9772562980651855,
            -0.31796979904174805,
            -2.415191411972046,
            0.27239707112312317,
            1.9338964223861694,
            0.570734977722168,
            0.15446075797080994,
            2.911919355392456,
            0.42536553740501404,
            -1.3183941841125488,
            -0.13300126791000366,
            0.7442528009414673,
            0.08956745266914368,
            0.3080153167247772,
            2.832890033721924,
            -0.6054142713546753,
            -3.9526195526123047,
            -0.01654209941625595,
            0.6653451323509216,
            -0.4635530710220337,
            -1.308354377746582,
            -0.4908996820449829,
            1.4305483102798462,
            2.7794225215911865,
            -2.8753273487091064,
            1.9693914651870728,
            1.0489383935928345,
            -1.0248692035675049,
            3.346433639526367,
            1.0378011465072632,
            -0.9117528796195984,
            -4.706475734710693,
            1.3026529550552368,
            5.340107440948486,
            0.21257983148097992,
            1.6156625747680664,
            0.6181443929672241,
            2.0248477458953857,
            -1.1461551189422607,
            0.8074995279312134,
            2.702469825744629,
            -1.6155657768249512,
            2.9076530933380127,
            3.2984821796417236,
            -2.9741835594177246,
            -3.53275465965271,
            -1.494260549545288,
            -1.078319787979126,
            -1.7670402526855469,
            -3.739853858947754,
            3.2745189666748047,
            5.870629787445068,
            1.3593940734863281,
            -3.3870866298675537,
            -0.877611517906189,
            0.8168342113494873,
            0.40785717964172363,
            1.1913073062896729,
            -4.94549036026001,
            1.8939757347106934,
            -1.901660442352295,
            0.1264023780822754,
            -1.5911486148834229,
            0.412511944770813,
            -1.409306526184082,
            -1.256204605102539,
            -5.345819473266602,
            1.155556559562683,
            0.7502402067184448,
            1.0623183250427246,
            -0.7509909272193909,
            -1.9128172397613525,
            3.2995004653930664,
            0.8727606534957886,
            1.742923378944397,
            -0.680462121963501,
            1.8505723476409912,
            3.54255747795105,
            -0.6574379205703735,
            -4.668494701385498,
            0.502874493598938,
            0.9223049283027649,
            2.499617099761963,
            -1.4699064493179321,
            2.134091854095459,
            1.4250621795654297,
            3.480626106262207,
            2.311034679412842,
            -1.251470923423767,
            -3.30507755279541,
            0.9370214343070984,
            3.643247604370117,
            1.057445764541626,
            2.0646278858184814,
            2.7300050258636475,
            2.063642978668213,
            0.2841586470603943,
            0.5541806221008301,
            1.3737562894821167,
            -1.0561299324035645,
            0.9417597055435181,
            1.2353765964508057,
            -1.3780311346054077,
            -2.80389404296875,
            -2.529942274093628,
            -0.8215830326080322,
            -1.5434061288833618,
            -1.9076004028320312,
            1.7658857107162476,
            4.284119129180908,
            2.5143399238586426,
            -4.1114068031311035,
            1.3375270366668701,
            0.9908447861671448,
            -0.05079338699579239,
            -0.05149371176958084,
            -0.03050439991056919,
            0.04655292257666588,
            -0.004584993701428175,
            0.0015265801921486855,
            -0.030930643901228905,
            0.057393066585063934,
            -0.06370094418525696,
            0.05416707322001457,
            -0.005167271941900253,
            0.01894666813313961,
            0.006567775271832943,
            -0.02442115731537342,
            -0.048411935567855835,
            -0.0323495976626873,
            0.02173098921775818,
            0.0585976168513298,
            0.042935702949762344,
            -0.004038609564304352,
            0.022096727043390274,
            -0.01926933415234089,
            0.05406884476542473,
            -0.03740014508366585,
            0.07663091272115707,
            0.046628743410110474,
            0.046139784157276154,
            -0.06549566984176636,
            -0.06802003085613251,
            -0.06182781979441643
        ]
    },
    "hiddenLayers": [
        {
            "inputMatrix": {
                "rows": 20,
                "columns": 29,
                "weights": [
                    0.43981295824050903,
                    0.5053742527961731,
                    -3.299217700958252,
                    -1.2977043390274048,
                    0.06911779940128326,
                    0.5845358967781067,
                    0.11488492786884308,
                    -0.4592120945453644,
                    0.9275099039077759,
                    1.9724823236465454,
                    -0.6104252934455872,
                    -0.1772909015417099,
                    0.2792961299419403,
                    -0.1877022087574005,
                    0.8306733965873718,
                    -0.274254709482193,
                    -1.50372314453125,
                    -0.6647260189056396,
                    -0.16614818572998047,
                    -1.7023273706436157,
                    -2.729720115661621,
                    -0.23339591920375824,
                    0.5285289287567139,
                    1.1993476152420044,
                    -0.07030710577964783,
                    -0.28223973512649536,
                    0.6742898225784302,
                    -0.07917963713407516,
                    -0.5296611785888672,
                    0.14424888789653778,
                    1.004131555557251,
                    -1.3045390844345093,
                    -1.5362926721572876,
                    0.7263174653053284,
                    0.027146652340888977,
                    0.26204925775527954,
                    0.3012307286262512,
                    1.9271153211593628,
                    0.7410891056060791,
                    1.154627799987793,
                    0.22576981782913208,
                    0.19311517477035522,
                    -0.39422813057899475,
                    0.9810314774513245,
                    -0.7117941975593567,
                    -0.24397651851177216,
                    -0.3429150879383087,
                    -0.19008348882198334,
                    -0.20615048706531525,
                    -1.0961841344833374,
                    -0.24424628913402557,
                    1.3828824758529663,
                    0.5506036877632141,
                    -0.11948717385530472,
                    -0.029369592666625977,
                    0.27519649267196655,
                    0.28134000301361084,
                    -0.1492777317762375,
                    -0.2294635772705078,
                    -0.18099388480186462,
                    -0.12534908950328827,
                    0.20512263476848602,
                    -0.7008142471313477,
                    0.42346900701522827,
                    -0.21252302825450897,
                    -0.6870083808898926,
                    -0.019245458766818047,
                    -0.23031531274318695,
                    -0.05244589224457741,
                    -0.4597145915031433,
                    0.0027481585275381804,
                    0.3531813323497772,
                    -0.76996248960495,
                    0.5120164155960083,
                    0.29797881841659546,
                    -0.12587422132492065,
                    -0.050847556442022324,
                    -0.3769686222076416,
                    -0.06782174855470657,
                    -0.02511626109480858,
                    0.1074516773223877,
                    -0.1398487538099289,
                    0.8230544328689575,
                    -0.14616060256958008,
                    -0.9015019536018372,
                    -0.33176490664482117,
                    -0.1753450483083725,
                    -0.4283480942249298,
                    -0.7687875628471375,
                    0.5263491272926331,
                    -0.23749138414859772,
                    0.14970748126506805,
                    -0.549821674823761,
                    0.08926451206207275,
                    -0.8431572318077087,
                    -0.42259854078292847,
                    -1.5535191297531128,
                    0.678585946559906,
                    0.11321630328893661,
                    -0.06052081286907196,
                    -0.02593020349740982,
                    -0.16527628898620605,
                    -0.505798876285553,
                    1.338273286819458,
                    0.6221227049827576,
                    0.48374369740486145,
                    0.9284408688545227,
                    0.9812378883361816,
                    0.11633472144603729,
                    -2.0239410400390625,
                    -0.5839083790779114,
                    -0.07691770792007446,
                    0.5787781476974487,
                    -0.5221598148345947,
                    0.6402908563613892,
                    0.6310628652572632,
                    0.4319497346878052,
                    1.2918685674667358,
                    -0.9141601920127869,
                    -0.4055976867675781,
                    0.4346793591976166,
                    0.6431830525398254,
                    -0.6934174299240112,
                    0.6549051403999329,
                    1.3887214660644531,
                    0.9698496460914612,
                    0.14723776280879974,
                    0.24528974294662476,
                    0.6379451155662537,
                    -0.4013437330722809,
                    0.10604182630777359,
                    0.28507500886917114,
                    -0.20831696689128876,
                    -1.0644307136535645,
                    -0.33480414748191833,
                    -0.47722259163856506,
                    -1.025613784790039,
                    -0.5117733478546143,
                    0.870500385761261,
                    0.6729548573493958,
                    0.5099841952323914,
                    -0.690056562423706,
                    1.0841444730758667,
                    0.20478616654872894,
                    0.21228401362895966,
                    0.6558170318603516,
                    1.0278022289276123,
                    -0.646692156791687,
                    -1.4375231266021729,
                    0.5409465432167053,
                    0.4624595642089844,
                    0.13207146525382996,
                    -0.11315969377756119,
                    0.989427924156189,
                    0.5380710959434509,
                    0.9016912579536438,
                    0.5586305856704712,
                    0.6891277432441711,
                    -0.8375696539878845,
                    0.28908246755599976,
                    -0.3620026707649231,
                    0.739556074142456,
                    -0.44384220242500305,
                    -0.6940771341323853,
                    0.054875973612070084,
                    -0.5910075306892395,
                    -0.7239999771118164,
                    -0.2053927630186081,
                    0.9760240912437439,
                    -0.3068997263908386,
                    -0.49264031648635864,
                    0.11416991055011749,
                    0.2516512870788574,
                    0.2703275680541992,
                    -0.19853068888187408,
                    1.1010130643844604,
                    -1.349847435951233,
                    -0.3674066662788391,
                    0.09486758708953857,
                    0.15701626241207123,
                    0.34548574686050415,
                    -0.30672487616539,
                    1.6671696901321411,
                    0.6071287989616394,
                    -0.5710238218307495,
                    -0.045459214597940445,
                    0.3201737105846405,
                    -0.399066686630249,
                    -0.18250665068626404,
                    -1.2826648950576782,
                    0.811617910861969,
                    -1.0404471158981323,
                    -0.19008958339691162,
                    -0.19602419435977936,
                    -1.0688501596450806,
                    -0.10089932382106781,
                    0.07671354711055756,
                    0.33661794662475586,
                    0.27988696098327637,
                    -0.1787867248058319,
                    0.7604475617408752,
                    -0.009555721655488014,
                    -0.38887694478034973,
                    1.4322491884231567,
                    1.7119204998016357,
                    -0.3657376170158386,
                    -0.9635928869247437,
                    1.1285791397094727,
                    -0.07580796629190445,
                    -0.07662001252174377,
                    -0.9368201494216919,
                    2.945173978805542,
                    -0.7135647535324097,
                    0.8388283252716064,
                    0.8973885774612427,
                    1.0073745250701904,
                    -1.0017240047454834,
                    -0.6225230693817139,
                    0.21789509057998657,
                    0.5914404988288879,
                    -1.5553474426269531,
                    -1.7628698348999023,
                    0.014289014972746372,
                    0.02979421429336071,
                    -0.5506013035774231,
                    0.5853774547576904,
                    1.9016801118850708,
                    -0.313816100358963,
                    -0.3434714376926422,
                    -0.21297329664230347,
                    -0.36544516682624817,
                    0.24324241280555725,
                    -0.2590649127960205,
                    0.6358134150505066,
                    -1.0598257780075073,
                    -1.0336145162582397,
                    -0.48474767804145813,
                    -0.11966706812381744,
                    2.1215856075286865,
                    0.26500028371810913,
                    0.6960341334342957,
                    0.7653416395187378,
                    0.019816411659121513,
                    -0.8515999913215637,
                    -0.27252012491226196,
                    0.3768255114555359,
                    1.6627774238586426,
                    -0.4429328441619873,
                    -1.385827898979187,
                    0.04005569592118263,
                    0.04642927646636963,
                    -0.8732521533966064,
                    -0.8351341485977173,
                    -0.05467807874083519,
                    0.7452757954597473,
                    0.1828787922859192,
                    0.3882480263710022,
                    0.1516467034816742,
                    -0.7929278016090393,
                    0.2220287024974823,
                    -0.5651634335517883,
                    -1.149773359298706,
                    -0.7297674417495728,
                    -0.46148496866226196,
                    0.47827091813087463,
                    -0.6169112920761108,
                    -0.4564001262187958,
                    0.39179399609565735,
                    -0.43656179308891296,
                    -0.7048279643058777,
                    0.03552834689617157,
                    -0.30465272068977356,
                    -0.4588939845561981,
                    -0.5429516434669495,
                    0.5703380107879639,
                    -0.27939683198928833,
                    -1.5286556482315063,
                    1.4665379524230957,
                    0.49804431200027466,
                    0.9932806491851807,
                    0.6760942935943604,
                    0.05800643190741539,
                    0.3385624587535858,
                    -0.7272841334342957,
                    -1.6033705472946167,
                    0.4333651065826416,
                    0.24934504926204681,
                    -0.8165550827980042,
                    0.538080632686615,
                    0.05506690964102745,
                    -0.15488971769809723,
                    0.30037733912467957,
                    -1.1852564811706543,
                    -0.40410906076431274,
                    -0.5980672836303711,
                    0.790633499622345,
                    0.6483851671218872,
                    -0.30108213424682617,
                    0.24329021573066711,
                    1.3259210586547852,
                    -1.3909162282943726,
                    -0.6701386570930481,
                    0.03128267079591751,
                    0.10930576175451279,
                    0.9449678063392639,
                    -0.43013161420822144,
                    -0.6261303424835205,
                    -0.4461565911769867,
                    0.14485929906368256,
                    -0.5432325601577759,
                    -1.352684497833252,
                    -0.10065817832946777,
                    -0.05372578278183937,
                    0.3307627737522125,
                    -0.5482516884803772,
                    -0.439716100692749,
                    -0.4096551537513733,
                    -0.7116329669952393,
                    -1.0925475358963013,
                    -0.768779456615448,
                    -0.5798264145851135,
                    0.7468234896659851,
                    0.5583780407905579,
                    -0.536602795124054,
                    -0.526687502861023,
                    0.5196317434310913,
                    0.10195676237344742,
                    -0.8889175653457642,
                    -0.21671107411384583,
                    -0.06371980160474777,
                    -0.7694135308265686,
                    -0.8183677792549133,
                    0.8155694603919983,
                    0.17707176506519318,
                    0.3254930078983307,
                    -0.8836742043495178,
                    1.3412381410598755,
                    0.5687218904495239,
                    -0.474030464887619,
                    0.1846592128276825,
                    0.8647342920303345,
                    -0.2889765202999115,
                    -0.09465343505144119,
                    -0.839547872543335,
                    1.3444201946258545,
                    -0.5846050381660461,
                    -0.5885054469108582,
                    -0.5020284652709961,
                    -0.598307728767395,
                    -1.2562363147735596,
                    0.11527290940284729,
                    0.8711456656455994,
                    -0.4254457652568817,
                    -0.9579325318336487,
                    0.5849577188491821,
                    -1.2354527711868286,
                    -0.6637868881225586,
                    -0.5143311619758606,
                    -0.7302349209785461,
                    -0.7186683416366577,
                    -0.33461660146713257,
                    0.7061368823051453,
                    -0.0902097076177597,
                    0.17493323981761932,
                    0.08676929771900177,
                    0.59705650806427,
                    0.41021865606307983,
                    0.004180581774562597,
                    0.2156858593225479,
                    0.6760923862457275,
                    -0.8427974581718445,
                    -0.7846706509590149,
                    -0.09782872349023819,
                    0.5712339878082275,
                    -1.652032494544983,
                    -0.378717303276062,
                    -0.12199520319700241,
                    0.75299072265625,
                    -0.1475563943386078,
                    0.12227094918489456,
                    0.2818772792816162,
                    -0.3206727206707001,
                    0.9370866417884827,
                    0.008289127610623837,
                    2.020717144012451,
                    -0.35859015583992004,
                    0.7823405861854553,
                    1.9309120178222656,
                    0.37278640270233154,
                    -0.13189299404621124,
                    -0.2260856032371521,
                    1.1746735572814941,
                    -0.08383049070835114,
                    -1.6264899969100952,
                    0.9572818279266357,
                    -1.2532306909561157,
                    -0.8031126856803894,
                    -0.1734265685081482,
                    -0.6167402863502502,
                    1.5894650220870972,
                    0.3408651649951935,
                    0.23640599846839905,
                    -0.7388938665390015,
                    0.16644246876239777,
                    -0.15842682123184204,
                    0.10460653156042099,
                    0.5590356588363647,
                    1.6081527471542358,
                    -1.539414405822754,
                    -0.1694750040769577,
                    -0.024129504337906837,
                    0.612018883228302,
                    0.32451459765434265,
                    -0.7380477786064148,
                    2.069859266281128,
                    0.8207191824913025,
                    -1.2806422710418701,
                    -0.08743244409561157,
                    0.3587038815021515,
                    -0.12891222536563873,
                    -1.0362473726272583,
                    -0.8345689177513123,
                    1.1925212144851685,
                    -1.6233301162719727,
                    -0.4446062445640564,
                    0.7782244086265564,
                    -1.9074997901916504,
                    -0.015240726061165333,
                    0.772634744644165,
                    1.3392657041549683,
                    -0.6264600157737732,
                    -0.6545546054840088,
                    0.4942043721675873,
                    -0.6844899654388428,
                    -0.9821350574493408,
                    0.359719842672348,
                    1.0035266876220703,
                    -0.9188179969787598,
                    -1.020991563796997,
                    0.9007423520088196,
                    0.5360130071640015,
                    -0.1334167867898941,
                    0.48048973083496094,
                    1.3032037019729614,
                    0.5386849641799927,
                    0.6608595848083496,
                    0.7462199926376343,
                    0.6522243618965149,
                    -0.6926770806312561,
                    0.3271298110485077,
                    -0.2810389995574951,
                    0.055082689970731735,
                    -0.5298987030982971,
                    -0.535258948802948,
                    -0.30518776178359985,
                    -0.7592520713806152,
                    -0.6994779706001282,
                    0.4037471413612366,
                    0.6164518594741821,
                    0.3516463041305542,
                    -0.3689953684806824,
                    0.7582777738571167,
                    0.592287540435791,
                    0.4807887077331543,
                    0.6110100746154785,
                    0.2934594750404358,
                    -0.13327160477638245,
                    -0.3552369475364685,
                    -0.5081000328063965,
                    -0.5622380375862122,
                    0.7739284634590149,
                    -0.6001281142234802,
                    0.5751701593399048,
                    -0.3379419445991516,
                    -0.5147473216056824,
                    0.06033352389931679,
                    -0.10842803865671158,
                    -0.2812071442604065,
                    -1.4249807596206665,
                    0.08788324147462845,
                    1.3982669115066528,
                    0.21166808903217316,
                    0.08888784795999527,
                    0.5376306772232056,
                    0.14838530123233795,
                    0.3359494209289551,
                    -0.3283977210521698,
                    0.631910502910614,
                    -0.4410831332206726,
                    0.3283396363258362,
                    -0.18606309592723846,
                    -0.879760205745697,
                    -0.47154197096824646,
                    -2.1988251209259033,
                    -0.4365837574005127,
                    0.3670264482498169,
                    1.299146294593811,
                    0.13188600540161133,
                    -0.4131000339984894,
                    1.77701735496521,
                    0.37132859230041504,
                    -0.2818673253059387,
                    -0.07758430391550064,
                    -1.2765929698944092,
                    -1.97843337059021,
                    -0.6313745975494385,
                    1.588775873184204,
                    0.3698035776615143,
                    -0.1795678436756134,
                    -0.6673445105552673,
                    1.1967655420303345,
                    -0.40542709827423096,
                    -0.7910290360450745,
                    -0.10234373807907104,
                    1.168809175491333,
                    0.964778482913971,
                    -0.3775530755519867,
                    -1.040297269821167,
                    0.26201319694519043,
                    0.24338839948177338,
                    -1.218151569366455,
                    -0.7799003720283508,
                    -0.33263325691223145,
                    -0.9308893084526062,
                    0.5975364446640015,
                    -0.6942097544670105,
                    -0.08738664537668228,
                    -1.8114207983016968,
                    1.4237600564956665,
                    -0.2167615443468094,
                    -0.32538020610809326,
                    -0.043122854083776474,
                    0.21204787492752075,
                    -0.8431577086448669,
                    -0.9772321581840515,
                    0.48742952942848206,
                    0.808715283870697,
                    0.3868887424468994,
                    -1.1269649267196655,
                    1.7754230499267578,
                    0.27926814556121826,
                    -0.006262160837650299,
                    0.27996304631233215,
                    1.1183521747589111,
                    0.181686669588089,
                    -0.22984196245670319,
                    -0.4744357764720917,
                    2.0815446376800537,
                    -2.0933752059936523,
                    0.6013173460960388,
                    -0.6241476535797119,
                    -1.7992513179779053,
                    -0.27425771951675415,
                    -0.857952892780304,
                    0.8911866545677185,
                    -0.4838959276676178,
                    -1.1708968877792358,
                    0.8171344995498657,
                    -1.1448947191238403,
                    0.484993040561676,
                    -0.45336097478866577,
                    -0.6904056668281555,
                    -1.0056380033493042,
                    -0.18520626425743103,
                    0.7462791800498962,
                    -0.9014930725097656,
                    -0.34068000316619873,
                    0.7500930428504944,
                    -0.7719308733940125,
                    0.7770010232925415,
                    0.576457679271698,
                    -0.12936782836914062,
                    0.7847578525543213,
                    -0.39496567845344543,
                    -1.45076584815979,
                    -0.3733168840408325,
                    0.46194013953208923,
                    0.27454492449760437,
                    -0.3358911871910095,
                    -1.0325324535369873
                ]
            },
            "inputHidden": {
                "rows": 20,
                "columns": 20,
                "weights": [
                    -0.5272241830825806,
                    0.8492423295974731,
                    0.1473795473575592,
                    1.2492035627365112,
                    0.5448377728462219,
                    -0.30496877431869507,
                    0.5728950500488281,
                    -0.561903178691864,
                    -1.2976863384246826,
                    1.4570472240447998,
                    -0.23600871860980988,
                    0.6099313497543335,
                    1.2409605979919434,
                    -0.18949401378631592,
                    -0.32462596893310547,
                    0.6591330170631409,
                    -0.343752384185791,
                    -0.21365536749362946,
                    -0.7917881608009338,
                    0.5035501718521118,
                    0.1474820226430893,
                    0.393238365650177,
                    -0.4308694303035736,
                    1.7458651065826416,
                    0.1032593846321106,
                    0.3667440116405487,
                    0.1460854411125183,
                    -0.784692108631134,
                    -0.1876038759946823,
                    1.05253267288208,
                    -1.4665380716323853,
                    0.9670696258544922,
                    1.3167908191680908,
                    -0.184694305062294,
                    0.052257001399993896,
                    -0.18174409866333008,
                    -0.6061086058616638,
                    -0.5077337622642517,
                    -0.6601592302322388,
                    1.2851192951202393,
                    -2.3364510536193848,
                    0.8178038001060486,
                    0.879418134689331,
                    0.564734935760498,
                    0.4347221851348877,
                    -0.19272516667842865,
                    0.06081328168511391,
                    -0.6215963959693909,
                    0.9509153962135315,
                    0.9543752074241638,
                    1.1865946054458618,
                    -1.6529409885406494,
                    -0.04695795103907585,
                    -1.1413612365722656,
                    -1.0447701215744019,
                    0.9587557315826416,
                    0.2544957399368286,
                    -0.4240652620792389,
                    -0.48626986145973206,
                    -3.5892491340637207,
                    2.795485496520996,
                    0.46914470195770264,
                    0.9031297564506531,
                    0.6578857898712158,
                    0.809338390827179,
                    -0.8445219993591309,
                    -0.148861363530159,
                    1.212668776512146,
                    -3.3819162845611572,
                    0.6272543668746948,
                    -1.1265619993209839,
                    -1.2804431915283203,
                    0.3891679048538208,
                    -0.5334647297859192,
                    1.0160770416259766,
                    1.038920521736145,
                    0.6485509276390076,
                    0.5376506447792053,
                    -0.46461960673332214,
                    -0.3010765016078949,
                    -0.6744416356086731,
                    0.7143129110336304,
                    0.22552789747714996,
                    0.2890634834766388,
                    0.8461923599243164,
                    -0.6301378607749939,
                    -0.18200917541980743,
                    0.41005679965019226,
                    -0.08085105568170547,
                    1.487311601638794,
                    0.5265117883682251,
                    0.6925978064537048,
                    0.19475290179252625,
                    -1.9825798273086548,
                    -0.17717480659484863,
                    0.9400385618209839,
                    0.1649332493543625,
                    -1.7433686256408691,
                    -0.3374914526939392,
                    0.03790183737874031,
                    -0.27589118480682373,
                    -0.061284441500902176,
                    -0.5154219269752502,
                    1.0353671312332153,
                    0.40922272205352783,
                    0.039316482841968536,
                    -0.4352337718009949,
                    -0.5476793646812439,
                    0.3798648416996002,
                    0.22210367023944855,
                    0.24976254999637604,
                    1.3022794723510742,
                    0.4913768768310547,
                    -0.12602338194847107,
                    0.22780734300613403,
                    0.01716627925634384,
                    -0.9175503253936768,
                    -1.8167805671691895,
                    -0.9661166071891785,
                    -0.7323434352874756,
                    0.3461857736110687,
                    0.7316530346870422,
                    -1.3417260646820068,
                    1.3264641761779785,
                    -2.0505802631378174,
                    -0.5675646066665649,
                    -0.3556464612483978,
                    -2.464498996734619,
                    -0.5475473403930664,
                    -1.277938723564148,
                    0.3763861060142517,
                    1.2939720153808594,
                    1.811926245689392,
                    -0.7427499890327454,
                    -0.5929414629936218,
                    0.3610004782676697,
                    -1.8276643753051758,
                    -0.272198885679245,
                    -0.18029704689979553,
                    0.635647177696228,
                    -1.1804468631744385,
                    1.0054421424865723,
                    -1.0500088930130005,
                    1.626065731048584,
                    0.5191558003425598,
                    -1.2792892456054688,
                    -0.3138638734817505,
                    -0.09647753834724426,
                    0.036364857107400894,
                    -0.6831554770469666,
                    1.4552631378173828,
                    1.9103617668151855,
                    1.5247774124145508,
                    1.3486183881759644,
                    -0.32865098118782043,
                    1.1598150730133057,
                    -1.1954832077026367,
                    -0.1742759793996811,
                    -1.2360550165176392,
                    1.0346310138702393,
                    -0.6998382210731506,
                    1.161912441253662,
                    -1.4030828475952148,
                    1.1068055629730225,
                    1.8739619255065918,
                    -1.2510217428207397,
                    0.1907399743795395,
                    0.24155350029468536,
                    0.33274948596954346,
                    0.37852826714515686,
                    2.411186456680298,
                    1.366033673286438,
                    1.6221394538879395,
                    -0.9625844955444336,
                    -0.41931867599487305,
                    1.3982127904891968,
                    -0.5722951889038086,
                    -0.37352728843688965,
                    -0.954967200756073,
                    0.501530647277832,
                    1.98294997215271,
                    1.5599794387817383,
                    -0.4734746515750885,
                    -0.013281628489494324,
                    1.6589809656143188,
                    -2.818068742752075,
                    -0.008277179673314095,
                    0.37743887305259705,
                    1.346884846687317,
                    -0.8961029648780823,
                    1.2858794927597046,
                    0.551964282989502,
                    -0.4501546621322632,
                    -3.662858247756958,
                    0.6730520129203796,
                    2.457205057144165,
                    -0.44952306151390076,
                    -1.5274027585983276,
                    0.4758754372596741,
                    0.7910335659980774,
                    -1.728981375694275,
                    1.4202159643173218,
                    -1.0345879793167114,
                    1.6015009880065918,
                    1.9800257682800293,
                    -1.0401899814605713,
                    1.0156174898147583,
                    0.8750683069229126,
                    1.4099098443984985,
                    0.24275697767734528,
                    1.5033622980117798,
                    1.8492680788040161,
                    0.8438326120376587,
                    -1.0941048860549927,
                    -0.8845938444137573,
                    0.8372563123703003,
                    -2.028066873550415,
                    -2.4511101245880127,
                    -1.2590773105621338,
                    1.5938745737075806,
                    -0.8970521092414856,
                    1.1306136846542358,
                    0.8792404532432556,
                    -0.17903119325637817,
                    1.4053832292556763,
                    -1.2616242170333862,
                    0.4867652654647827,
                    0.08950426429510117,
                    0.7652607560157776,
                    0.44983136653900146,
                    1.2897428274154663,
                    -0.42012056708335876,
                    -0.4310344159603119,
                    -0.6252040863037109,
                    -0.6755377650260925,
                    1.5775386095046997,
                    0.309251070022583,
                    0.23329035937786102,
                    0.44935882091522217,
                    0.28507041931152344,
                    -1.8423806428909302,
                    0.7820820212364197,
                    -0.37472033500671387,
                    0.24029098451137543,
                    1.9215682744979858,
                    -0.908143162727356,
                    1.102882742881775,
                    1.630692481994629,
                    1.9911003112792969,
                    -0.5555607080459595,
                    0.06347832828760147,
                    0.6370983123779297,
                    -0.42862680554389954,
                    0.059302762150764465,
                    -0.6031295657157898,
                    1.0285053253173828,
                    0.3022080659866333,
                    -1.0990971326828003,
                    -0.7825154066085815,
                    -1.0295122861862183,
                    0.8147425651550293,
                    -0.6960694789886475,
                    0.1706700474023819,
                    1.4096511602401733,
                    -1.3750802278518677,
                    -0.38861605525016785,
                    -0.009876342490315437,
                    -1.7187386751174927,
                    -0.45051005482673645,
                    -1.9015120267868042,
                    -0.8210508227348328,
                    -0.12578754127025604,
                    0.888782262802124,
                    0.16550226509571075,
                    0.13023634254932404,
                    -0.7056851983070374,
                    0.028424976393580437,
                    -1.2001038789749146,
                    -0.5925912857055664,
                    -1.8558107614517212,
                    -0.3942728042602539,
                    0.4897155463695526,
                    -0.3989432454109192,
                    1.2073677778244019,
                    -1.1923490762710571,
                    0.3934091329574585,
                    -0.2615845203399658,
                    -0.8649362325668335,
                    -0.1330258995294571,
                    0.3675854504108429,
                    -0.8101059198379517,
                    -0.0323382243514061,
                    1.632483959197998,
                    0.0506988950073719,
                    -0.03434846177697182,
                    0.2221955955028534,
                    -0.4921434819698334,
                    0.15008729696273804,
                    -0.8884228467941284,
                    -0.26710882782936096,
                    0.7755221128463745,
                    -0.8428106904029846,
                    0.3134821653366089,
                    0.8960311412811279,
                    -1.443027377128601,
                    0.7323062419891357,
                    -1.2543994188308716,
                    -1.4797747135162354,
                    -1.9591249227523804,
                    0.799209713935852,
                    -0.18764252960681915,
                    0.10706394165754318,
                    0.6170501112937927,
                    -0.18353450298309326,
                    0.7255364656448364,
                    -0.9237594604492188,
                    0.05776944011449814,
                    -0.5222129821777344,
                    -0.5673585534095764,
                    0.007226016838103533,
                    -2.62076473236084,
                    0.7735364437103271,
                    0.5293803811073303,
                    -0.3089406192302704,
                    0.47725412249565125,
                    -0.17087535560131073,
                    0.20904603600502014,
                    -0.026883218437433243,
                    1.6830930709838867,
                    1.4778250455856323,
                    1.9632984399795532,
                    -1.0143251419067383,
                    -1.2382177114486694,
                    0.5780771374702454,
                    -1.283808708190918,
                    0.3511201739311218,
                    1.1754682064056396,
                    -1.5541929006576538,
                    -0.17202867567539215,
                    -0.5107698440551758,
                    -1.3645371198654175,
                    0.04201315715909004,
                    -0.7174042463302612,
                    0.9393021464347839,
                    0.11804787814617157,
                    -0.666141927242279,
                    -0.2763092815876007,
                    0.40803059935569763,
                    0.655586302280426,
                    -0.2794571816921234,
                    1.0495314598083496,
                    1.1703267097473145,
                    0.5181570053100586,
                    0.7731223106384277,
                    -0.21707987785339355,
                    0.34397441148757935,
                    -0.8602803349494934,
                    -0.04167367145419121,
                    -1.7584269046783447,
                    0.044260069727897644,
                    -1.0437309741973877,
                    0.22474819421768188,
                    0.3890889286994934,
                    1.2937281131744385,
                    0.21151776611804962,
                    -1.8077871799468994,
                    -0.07827608287334442,
                    0.059767965227365494,
                    -0.615890383720398,
                    0.1648080050945282,
                    0.7244861125946045,
                    -0.3582952916622162,
                    1.0958141088485718,
                    -0.3621424436569214,
                    -0.7671548128128052,
                    0.3089405298233032,
                    0.39654409885406494,
                    0.10038057714700699,
                    -1.0533857345581055,
                    0.29127228260040283,
                    -0.26734277606010437,
                    -2.408607244491577,
                    -0.9241991639137268,
                    0.8402426838874817,
                    -1.3400102853775024,
                    1.5122617483139038,
                    -4.088014602661133,
                    -3.489729642868042,
                    1.295470952987671,
                    -1.244943380355835,
                    1.3218132257461548,
                    0.9807422161102295,
                    1.2019959688186646,
                    1.1747360229492188,
                    1.6378475427627563,
                    -0.7147631645202637,
                    -1.347594976425171,
                    -0.9291155934333801,
                    -0.6546400785446167,
                    -2.0875396728515625
                ]
            },
            "inputBias": {
                "rows": 20,
                "columns": 1,
                "weights": [
                    -0.910085916519165,
                    0.18809852004051208,
                    -0.6256589293479919,
                    -0.23053444921970367,
                    -0.5956186056137085,
                    1.7594513893127441,
                    0.14012806117534637,
                    -0.1481933891773224,
                    -0.2696320414543152,
                    -0.9629545211791992,
                    0.2837860882282257,
                    -0.6005071401596069,
                    -1.0647966861724854,
                    0.5974209308624268,
                    -0.6725387573242188,
                    0.523034393787384,
                    -1.1623954772949219,
                    -0.22774842381477356,
                    -0.9122276306152344,
                    -0.5133895874023438
                ]
            },
            "forgetMatrix": {
                "rows": 20,
                "columns": 29,
                "weights": [
                    -0.038895394653081894,
                    0.7177181243896484,
                    -1.158826470375061,
                    -2.1088874340057373,
                    0.8246133923530579,
                    -0.24350640177726746,
                    0.031568195670843124,
                    0.7566090822219849,
                    1.8348264694213867,
                    0.7525115013122559,
                    1.0693442821502686,
                    0.5092992782592773,
                    0.46044614911079407,
                    -0.3661610782146454,
                    1.2454644441604614,
                    -0.5789699554443359,
                    -0.3405934274196625,
                    -0.32210761308670044,
                    0.4119175374507904,
                    -0.3005187511444092,
                    -0.883364737033844,
                    -0.497665137052536,
                    0.8024486303329468,
                    0.12896586954593658,
                    -0.14547255635261536,
                    0.559691309928894,
                    0.5936807990074158,
                    0.5804524421691895,
                    0.16543392837047577,
                    0.5693053007125854,
                    1.1001554727554321,
                    -0.8392356038093567,
                    -0.5282633304595947,
                    0.31178969144821167,
                    0.6780201196670532,
                    -0.3637869656085968,
                    0.3939293324947357,
                    1.1634187698364258,
                    0.8358645439147949,
                    0.31817522644996643,
                    0.4979683458805084,
                    0.6310579776763916,
                    -0.550775408744812,
                    0.7016746401786804,
                    0.10619761049747467,
                    -0.6384701132774353,
                    -1.3779075145721436,
                    -0.7783591151237488,
                    -0.7257586121559143,
                    -0.9470712542533875,
                    -0.5962989926338196,
                    0.7357125282287598,
                    0.6496171951293945,
                    0.6128867864608765,
                    -0.706828773021698,
                    1.0268431901931763,
                    0.20154058933258057,
                    -0.022541243582963943,
                    -0.10689384490251541,
                    -1.054740309715271,
                    -0.15062262117862701,
                    -0.03501145914196968,
                    0.015514892525970936,
                    -1.0613843202590942,
                    1.7026455402374268,
                    0.32652053236961365,
                    -0.2359025776386261,
                    -0.33084821701049805,
                    -0.033418603241443634,
                    -0.21578636765480042,
                    -0.20200756192207336,
                    0.46842798590660095,
                    0.8408135175704956,
                    -0.8132848739624023,
                    -0.8658839464187622,
                    2.0697154998779297,
                    -0.014003190211951733,
                    0.09327035397291183,
                    0.38082265853881836,
                    0.25501468777656555,
                    0.27491986751556396,
                    -0.6102360486984253,
                    -0.46890169382095337,
                    0.7589159607887268,
                    -0.9210537672042847,
                    -0.3564090430736542,
                    -0.1004079207777977,
                    1.0228232145309448,
                    0.2998678684234619,
                    -0.006316110026091337,
                    -1.4442955255508423,
                    1.1992415189743042,
                    0.4051988422870636,
                    -1.0256837606430054,
                    -0.5754442811012268,
                    0.264942467212677,
                    -0.03953857347369194,
                    1.0068292617797852,
                    0.618293046951294,
                    1.0984219312667847,
                    -0.6554827094078064,
                    -0.5061247944831848,
                    0.7994499802589417,
                    0.4119735062122345,
                    -1.5587201118469238,
                    -0.24232318997383118,
                    0.03048625960946083,
                    -0.02432539127767086,
                    -0.8413410186767578,
                    -0.49332189559936523,
                    0.5382682681083679,
                    1.0694414377212524,
                    -0.5425288081169128,
                    0.7303727865219116,
                    1.291622281074524,
                    0.2778589427471161,
                    1.0706003904342651,
                    0.47245314717292786,
                    -0.6057987809181213,
                    -0.1733887940645218,
                    0.7850196361541748,
                    1.5098774433135986,
                    -1.545987844467163,
                    0.5965320467948914,
                    0.39832428097724915,
                    0.5607243776321411,
                    0.6850324273109436,
                    0.9724546074867249,
                    1.2155712842941284,
                    -1.0673186779022217,
                    0.6382427215576172,
                    0.05181797221302986,
                    -0.5692676305770874,
                    -1.6077631711959839,
                    -1.3136736154556274,
                    -0.5162398815155029,
                    -0.4365304410457611,
                    -1.3137013912200928,
                    0.8002382516860962,
                    0.6664913296699524,
                    1.7763288021087646,
                    -1.8024431467056274,
                    1.2222176790237427,
                    0.8610417246818542,
                    0.7788906693458557,
                    -0.1761452853679657,
                    0.17993906140327454,
                    -0.8980643153190613,
                    -0.3934890925884247,
                    -0.26122093200683594,
                    -0.45897412300109863,
                    0.7489640712738037,
                    -0.18923181295394897,
                    0.7456419467926025,
                    0.5538776516914368,
                    0.05712589621543884,
                    -0.520916759967804,
                    -0.15619511902332306,
                    0.17496441304683685,
                    1.331766963005066,
                    -0.32185325026512146,
                    -1.1504042148590088,
                    -0.3546295464038849,
                    -0.21671295166015625,
                    -1.299780011177063,
                    -0.8999853134155273,
                    0.2988557517528534,
                    1.1444042921066284,
                    0.20008188486099243,
                    -0.15598805248737335,
                    0.3837670385837555,
                    -0.15981876850128174,
                    -0.7041932940483093,
                    -0.9677007794380188,
                    -0.16599197685718536,
                    0.3371962904930115,
                    -0.2685335576534271,
                    0.7031991481781006,
                    -1.0242244005203247,
                    0.2764613628387451,
                    -0.22181102633476257,
                    0.3953946530818939,
                    -0.12868666648864746,
                    0.6445382833480835,
                    -2.0121943950653076,
                    -0.5760837197303772,
                    -0.3970889747142792,
                    0.7550809979438782,
                    0.09683317691087723,
                    -0.04901570826768875,
                    -0.05834721773862839,
                    -0.8558399677276611,
                    0.6728519797325134,
                    0.2968581020832062,
                    -0.35815179347991943,
                    0.5336233973503113,
                    0.2273205816745758,
                    -0.40210118889808655,
                    -0.1275472491979599,
                    -0.4760245084762573,
                    1.888124704360962,
                    -0.2507736086845398,
                    -0.9885950684547424,
                    1.0874583721160889,
                    0.5185203552246094,
                    -0.2291862517595291,
                    0.1719425767660141,
                    0.8135461807250977,
                    1.622365951538086,
                    -1.3472788333892822,
                    0.6913087368011475,
                    -0.055954962968826294,
                    0.8917703032493591,
                    0.6588616371154785,
                    0.8754813075065613,
                    1.016526699066162,
                    -0.4178796410560608,
                    -0.4406752288341522,
                    0.6298609375953674,
                    0.36668112874031067,
                    -1.3973350524902344,
                    -0.9405609965324402,
                    -0.5385999083518982,
                    -0.5589200854301453,
                    -0.8428532481193542,
                    0.7926767468452454,
                    1.0606364011764526,
                    1.109107255935669,
                    -1.4760026931762695,
                    0.9119424223899841,
                    0.6016910076141357,
                    0.5268059968948364,
                    0.8392148613929749,
                    0.4648244380950928,
                    -1.1354072093963623,
                    -0.5410614609718323,
                    -0.045925866812467575,
                    0.7993273138999939,
                    -0.5333256125450134,
                    -0.6109270453453064,
                    1.2732170820236206,
                    0.20531128346920013,
                    -0.09952249377965927,
                    0.13080565631389618,
                    0.7730322480201721,
                    -0.7215072512626648,
                    -0.2852803170681,
                    0.3614303469657898,
                    -1.2286911010742188,
                    -0.7905468344688416,
                    -1.4383996725082397,
                    -0.5906276106834412,
                    -0.9494630098342896,
                    -0.5180312395095825,
                    1.4134173393249512,
                    0.9926799535751343,
                    -0.03262227028608322,
                    -0.6456220746040344,
                    0.5543880462646484,
                    -0.5075820088386536,
                    -0.5815475583076477,
                    -0.2983243763446808,
                    0.7579118609428406,
                    -0.5853735208511353,
                    0.4963502585887909,
                    -0.09790370613336563,
                    -0.06223954260349274,
                    0.9685052037239075,
                    0.3423716127872467,
                    1.0845246315002441,
                    -0.11844360828399658,
                    -0.7957963943481445,
                    -0.46423107385635376,
                    -0.03373304381966591,
                    0.2721533477306366,
                    0.05540720373392105,
                    0.9947122931480408,
                    -0.6894713044166565,
                    0.33534252643585205,
                    -0.17763110995292664,
                    -0.6974167227745056,
                    -0.313181072473526,
                    -0.06191689148545265,
                    0.18678686022758484,
                    0.6672559976577759,
                    0.03426603227853775,
                    0.07742749154567719,
                    0.2175111323595047,
                    -0.26259472966194153,
                    -0.37036487460136414,
                    0.6522181034088135,
                    2.079537868499756,
                    -1.7711573839187622,
                    -0.48611903190612793,
                    0.3012314736843109,
                    0.5686596035957336,
                    -0.2574199140071869,
                    1.203050971031189,
                    2.4127509593963623,
                    1.5388232469558716,
                    0.2249036431312561,
                    0.3842610716819763,
                    0.6236838102340698,
                    -0.41223031282424927,
                    0.8677233457565308,
                    -0.7710430026054382,
                    -1.076585292816162,
                    -1.2632704973220825,
                    -0.9810561537742615,
                    -0.9188678860664368,
                    -1.8367964029312134,
                    -0.6272854208946228,
                    1.6439366340637207,
                    1.323054552078247,
                    -0.09313297271728516,
                    -0.6404700875282288,
                    1.3772127628326416,
                    -0.17386682331562042,
                    -0.4149099588394165,
                    0.8704458475112915,
                    0.41772401332855225,
                    -0.5782143473625183,
                    -1.5925707817077637,
                    0.6852652430534363,
                    0.08317186683416367,
                    -0.042529381811618805,
                    0.6538037061691284,
                    0.27955666184425354,
                    0.5898107886314392,
                    1.391860008239746,
                    1.522896647453308,
                    0.27760666608810425,
                    -1.5547622442245483,
                    0.7140670418739319,
                    -0.8080683946609497,
                    0.01502299401909113,
                    1.075501561164856,
                    -0.3018496334552765,
                    -0.08129049837589264,
                    -0.5203018188476562,
                    -1.0172728300094604,
                    0.09628216177225113,
                    0.0912245437502861,
                    0.018319811671972275,
                    -0.14750249683856964,
                    -0.8150168061256409,
                    0.9499642252922058,
                    1.2620307207107544,
                    1.626820683479309,
                    0.08255410939455032,
                    0.19784794747829437,
                    -1.282217025756836,
                    0.20235686004161835,
                    0.5448358058929443,
                    -1.498136281967163,
                    -0.259848952293396,
                    -0.01709521934390068,
                    -0.26078924536705017,
                    1.0691767930984497,
                    1.2798842191696167,
                    0.7581360936164856,
                    -1.0839996337890625,
                    -0.39561226963996887,
                    0.7808855772018433,
                    0.05030987784266472,
                    -0.9666517376899719,
                    -0.4093013107776642,
                    0.46358737349510193,
                    0.394032746553421,
                    -1.0724557638168335,
                    -0.7077552080154419,
                    0.05292319506406784,
                    1.7526837587356567,
                    -0.651225745677948,
                    0.20095565915107727,
                    1.8226392269134521,
                    1.6186330318450928,
                    -0.6172996163368225,
                    -1.1883695125579834,
                    0.45823413133621216,
                    0.03280036523938179,
                    -0.279617577791214,
                    -0.6214364767074585,
                    0.7628269791603088,
                    -0.014321789145469666,
                    -0.958995521068573,
                    -0.42118361592292786,
                    -0.49469077587127686,
                    -0.4958072006702423,
                    -0.5202609300613403,
                    0.48568663001060486,
                    0.41007041931152344,
                    -0.5786644220352173,
                    0.03920173645019531,
                    1.6775296926498413,
                    0.4210034906864166,
                    0.613788366317749,
                    0.48188531398773193,
                    0.4768642783164978,
                    -0.33738845586776733,
                    -0.45872753858566284,
                    -0.9846671223640442,
                    1.2569550275802612,
                    -0.8137310743331909,
                    0.17496581375598907,
                    -0.00389456725679338,
                    0.19186662137508392,
                    1.4133206605911255,
                    -1.7408679723739624,
                    -0.9963107705116272,
                    0.37226641178131104,
                    0.197511687874794,
                    -0.010898756794631481,
                    0.9888491630554199,
                    2.1335713863372803,
                    1.266019582748413,
                    0.8671631217002869,
                    0.17107456922531128,
                    0.3213466703891754,
                    -0.348427414894104,
                    0.6307891607284546,
                    -1.1999213695526123,
                    -0.6524672508239746,
                    -0.7705948352813721,
                    -0.6466245055198669,
                    -0.5464989542961121,
                    -1.5794696807861328,
                    -0.17112582921981812,
                    0.9141964316368103,
                    0.7343745231628418,
                    -0.08171340823173523,
                    -0.040856875479221344,
                    0.6836678981781006,
                    0.060386575758457184,
                    -0.009837428107857704,
                    0.21836183965206146,
                    1.500131607055664,
                    -0.8760802149772644,
                    0.03235583379864693,
                    -0.15111467242240906,
                    0.47449055314064026,
                    -0.20873257517814636,
                    1.321534514427185,
                    1.2004125118255615,
                    1.3791275024414062,
                    -0.07079823315143585,
                    0.09187320619821548,
                    0.1915132850408554,
                    -0.015546592883765697,
                    0.314084529876709,
                    -0.10216496884822845,
                    -1.2169369459152222,
                    -1.1841961145401,
                    -0.2049902230501175,
                    -1.2636277675628662,
                    -1.0486559867858887,
                    -0.2783145308494568,
                    1.5622912645339966,
                    0.3265407383441925,
                    0.7330842018127441,
                    -0.8720586895942688,
                    1.3945255279541016,
                    -0.3627685606479645,
                    -0.3738657236099243,
                    0.3699190318584442,
                    -1.3544597625732422,
                    0.5153579115867615,
                    -0.31657639145851135,
                    0.24601854383945465,
                    -0.476156085729599,
                    0.29452505707740784,
                    -0.7363247871398926,
                    -1.198015809059143,
                    -1.0203169584274292,
                    0.2514185309410095,
                    0.0647038146853447,
                    -0.08131367713212967,
                    0.22936232388019562,
                    0.7337605953216553,
                    -0.1978040635585785,
                    -0.643231987953186,
                    1.6033766269683838,
                    -0.15238788723945618,
                    -0.10501682013273239,
                    0.7550410032272339,
                    0.11703299731016159,
                    -0.1888609081506729,
                    -0.13353689014911652,
                    -0.32604727149009705,
                    0.46760478615760803,
                    -1.0967375040054321,
                    -0.2859813868999481,
                    0.09218000620603561,
                    0.2915000319480896,
                    -0.5698053240776062,
                    0.9286150932312012,
                    0.3097856342792511,
                    0.2788299322128296,
                    0.6450504660606384,
                    -1.2186274528503418,
                    0.12723980844020844,
                    -0.648726761341095,
                    -0.5894261598587036,
                    -0.39643412828445435,
                    0.015191680751740932,
                    -0.0005308929248712957,
                    -0.48915544152259827,
                    -0.877772867679596,
                    1.202101707458496,
                    0.2988094389438629,
                    0.02467728964984417,
                    0.08270663768053055,
                    0.38709282875061035,
                    0.5796494483947754,
                    -0.20707368850708008,
                    -0.7902979850769043,
                    0.12224854528903961,
                    -0.010545746423304081,
                    -0.2568116784095764,
                    0.737921416759491,
                    0.5058427453041077,
                    0.6927233338356018,
                    0.34995216131210327,
                    -0.758242130279541,
                    0.7422215938568115,
                    -0.32546886801719666,
                    0.613994300365448,
                    0.4737586975097656,
                    -0.21807311475276947,
                    0.6327677369117737,
                    -0.4749429523944855,
                    -0.5993308424949646,
                    0.1882753223180771,
                    0.3444635272026062,
                    0.33801913261413574,
                    -0.7191783785820007,
                    -0.037730589509010315,
                    -0.09522708505392075,
                    -0.11630318313837051,
                    0.10610290616750717,
                    -0.393958181142807,
                    0.6864306330680847,
                    0.8679925799369812,
                    -0.42415183782577515,
                    -0.0825786218047142,
                    0.6779859662055969,
                    -0.24130204319953918,
                    -0.24268898367881775,
                    0.08960314840078354,
                    0.8831367492675781,
                    1.7457530498504639,
                    -0.39846324920654297,
                    0.7450506091117859,
                    0.6610530018806458,
                    1.3216460943222046,
                    0.8121801018714905,
                    0.8480886816978455,
                    -2.430962562561035,
                    0.19707420468330383,
                    -0.8642453551292419,
                    0.4666707217693329,
                    -0.14983128011226654,
                    0.5701857209205627,
                    -0.13141746819019318,
                    -0.2940188944339752,
                    0.6144680976867676,
                    0.8102574944496155,
                    -0.7161785364151001,
                    -0.7238795757293701,
                    -0.222547709941864,
                    0.011922859586775303,
                    0.18127195537090302,
                    -0.34703999757766724,
                    0.30623680353164673,
                    -0.6740592122077942,
                    0.41129109263420105,
                    -1.1784440279006958,
                    0.4900463819503784,
                    0.6048499941825867,
                    1.5266622304916382
                ]
            },
            "forgetHidden": {
                "rows": 20,
                "columns": 20,
                "weights": [
                    0.1613548994064331,
                    -0.220906600356102,
                    -1.102229118347168,
                    1.3675649166107178,
                    0.33176377415657043,
                    0.43956026434898376,
                    -0.4231281876564026,
                    -0.4113028645515442,
                    0.11795377731323242,
                    0.7216663360595703,
                    0.34499815106391907,
                    1.3074002265930176,
                    1.524327039718628,
                    -0.35609927773475647,
                    0.39069995284080505,
                    -0.24817360937595367,
                    -0.7186562418937683,
                    -1.5556331872940063,
                    -1.4184271097183228,
                    -0.5118026733398438,
                    0.3170942962169647,
                    -0.14765000343322754,
                    -0.25803637504577637,
                    0.3616470992565155,
                    -0.038334909826517105,
                    0.12009058892726898,
                    -0.15570084750652313,
                    -0.14754028618335724,
                    -0.5901634693145752,
                    -0.750258207321167,
                    -0.07660142332315445,
                    0.32920774817466736,
                    0.3049701154232025,
                    -0.5549262762069702,
                    -0.2001054883003235,
                    0.04482506960630417,
                    -0.3156875669956207,
                    -0.2269047647714615,
                    -0.3128829598426819,
                    1.1546162366867065,
                    -0.6537815928459167,
                    0.3184363842010498,
                    -0.365288645029068,
                    0.5212697386741638,
                    0.4147814214229584,
                    -0.41201406717300415,
                    0.42042723298072815,
                    0.4948560297489166,
                    -0.17665302753448486,
                    -0.5239284038543701,
                    0.7513266205787659,
                    0.3670002222061157,
                    0.37472012639045715,
                    0.4999140202999115,
                    -0.4864320755004883,
                    0.39937645196914673,
                    -0.2870851159095764,
                    -0.3714960515499115,
                    -0.7135636806488037,
                    0.5674607753753662,
                    1.5188570022583008,
                    -0.1236453428864479,
                    1.4474079608917236,
                    -1.3620973825454712,
                    0.4084416627883911,
                    0.10914839059114456,
                    0.30318713188171387,
                    -0.02302492968738079,
                    -1.6138023138046265,
                    1.396069049835205,
                    -1.4080499410629272,
                    -2.31599760055542,
                    -1.0880218744277954,
                    0.2850620150566101,
                    0.8605989217758179,
                    0.01104980893433094,
                    2.2762258052825928,
                    0.9186155796051025,
                    1.1019302606582642,
                    -0.1460542231798172,
                    -0.3820890188217163,
