{
    "type": "RNN",
    "options": {
        "inputSize": 5,
        "inputRange": 5,
        "hiddenLayers": [
            20,
            20
        ],
        "outputSize": 5,
        "decayRate": 0.999,
        "smoothEps": 1e-8,
        "regc": 0.000001,
        "clipval": 5,
        "maxPredictionLength": 100,
        "dataFormatter": {
            "indexTable": {
                "0": 0,
                "1": 1,
                "stop-input": 2,
                "start-output": 3,
                "unrecognized": 4
            },
            "characterTable": {
                "0": "0",
                "1": "1",
                "2": null,
                "3": null,
                "4": null
            },
            "values": [
                {
                    "input": [
                        0,
                        0
                    ],
                    "output": [
                        0
                    ]
                },
                {
                    "input": [
                        0,
                        1
                    ],
                    "output": [
                        1
                    ]
                },
                {
                    "input": [
                        1,
                        0
                    ],
                    "output": [
                        1
                    ]
                },
                {
                    "input": [
                        1,
                        1
                    ],
                    "output": [
                        0
                    ]
                }
            ],
            "characters": [
                "0",
                "1",
                "stop-input",
                "start-output",
                "unrecognized"
            ],
            "specialIndexes": [
                2,
                3,
                4
            ]
        },
        "learningRate": 0.01
    },
    "trainOpts": {
        "iterations": 20000,
        "errorThresh": 0.005,
        "log": false,
        "logPeriod": 10,
        "learningRate": 0.01,
        "callbackPeriod": 10,
        "timeout": "Infinity"
    },
    "input": {
        "rows": 6,
        "columns": 5,
        "weights": [
            -0.05154689401388168,
            0.360652357339859,
            -0.8771827816963196,
            0.3871028423309326,
            0.3228667974472046,
            0.2316157966852188,
            0.417532354593277,
            -1.6254088878631592,
            0.14860659837722778,
            0.4409579336643219,
            -0.900772750377655,
            0.11070726066827774,
            -1.329402208328247,
            -0.9918878078460693,
            -0.5967545509338379,
            -1.0766522884368896,
            0.054457779973745346,
            -0.914202094078064,
            1.3988301753997803,
            1.7194174528121948,
            1.2229878902435303,
            -0.43043017387390137,
            2.2345130443573,
            -0.45074597001075745,
            -2.793239116668701,
            0.054579611867666245,
            0.02286497689783573,
            -0.04481649026274681,
            -0.009075457230210304,
            -0.012128176167607307
        ]
    },
    "hiddenLayers": [
        {
            "weight": {
                "rows": 20,
                "columns": 5,
                "weights": [
                    -0.6202576756477356,
                    -0.507946252822876,
                    0.6011207699775696,
                    1.291222095489502,
                    0.27083370089530945,
                    0.989304780960083,
                    0.2655622661113739,
                    -0.9974446296691895,
                    -0.262035608291626,
                    1.2457152605056763,
                    0.24409931898117065,
                    -2.152395486831665,
                    0.9660102725028992,
                    -1.7116150856018066,
                    -0.9641847014427185,
                    0.2625652849674225,
                    -0.47123005986213684,
                    0.588131308555603,
                    -0.7272303700447083,
                    -1.017110824584961,
                    0.026591883972287178,
                    -0.00658819917589426,
                    -0.0018225610256195068,
                    -0.0006318023661151528,
                    -0.04539668187499046,
                    0.12948085367679596,
                    -0.6419896483421326,
                    0.34115469455718994,
                    -0.2510457932949066,
                    -0.4797689616680145,
                    -0.3190156817436218,
                    0.6896408200263977,
                    0.48917025327682495,
                    -0.26319536566734314,
                    -0.7147160768508911,
                    -1.5063010454177856,
                    -0.6388326287269592,
                    -0.45278313755989075,
                    2.1812596321105957,
                    1.7196617126464844,
                    0.7095393538475037,
                    -0.06750708073377609,
                    -0.08277144283056259,
                    -0.02734334021806717,
                    0.5579104423522949,
                    0.7166535258293152,
                    -0.32154330611228943,
                    0.4110661447048187,
                    0.867909848690033,
                    -0.2586650550365448,
                    0.9571676850318909,
                    -1.4624662399291992,
                    1.0192105770111084,
                    -0.4087465703487396,
                    -0.9138646125793457,
                    -0.34614279866218567,
                    0.06820733845233917,
                    -0.7123255133628845,
                    -1.3581515550613403,
                    0.13447153568267822,
                    0.02704431116580963,
                    -0.08660732209682465,
                    0.015443426556885242,
                    0.4132862091064453,
                    -0.02587023191154003,
                    0.5470221638679504,
                    0.6194651126861572,
                    0.05368679389357567,
                    -1.114092230796814,
                    -0.3811437487602234,
                    -1.025396466255188,
                    -0.4821580946445465,
                    0.1818566471338272,
                    -0.048710159957408905,
                    0.1413918137550354,
                    0.2049674689769745,
                    -0.16332411766052246,
                    -0.43717533349990845,
                    0.02151881717145443,
                    -0.2921447157859802,
                    -0.7233716249465942,
                    -2.404035806655884,
                    -0.3711038827896118,
                    -1.1211414337158203,
                    -1.6114685535430908,
                    1.117026925086975,
                    -0.6104894280433655,
                    1.1571348905563354,
                    -0.43859174847602844,
                    -1.4942522048950195,
                    0.5384210348129272,
                    -0.09797830134630203,
                    0.9127989411354065,
                    -0.9329830408096313,
                    -0.5683321952819824,
                    0.28649553656578064,
                    -0.8579139113426208,
                    0.5813156962394714,
                    -1.0040007829666138,
                    -1.5817313194274902
                ]
            },
            "transition": {
                "rows": 20,
                "columns": 20,
                "weights": [
                    0.15207235515117645,
                    -0.061020027846097946,
                    0.41641488671302795,
                    -0.9522203207015991,
                    0.05137534812092781,
                    -0.5377600789070129,
                    0.3296411633491516,
                    0.009705321863293648,
                    -1.6895885467529297,
                    -0.02392660453915596,
                    -0.7472714185714722,
                    -1.2186750173568726,
                    -0.2308502495288849,
                    0.2711789011955261,
                    0.2055322676897049,
                    0.7178601622581482,
                    -0.3606078624725342,
                    -0.9327185750007629,
                    -0.29968610405921936,
                    0.5703660845756531,
                    -0.3707301616668701,
                    -3.57724666595459,
                    -1.703980565071106,
                    -0.6180335283279419,
                    0.0023131119087338448,
                    -0.20073987543582916,
                    -0.953575611114502,
                    0.2682134807109833,
                    0.699931263923645,
                    -1.5761504173278809,
                    0.08881454914808273,
                    0.1345931440591812,
                    0.031174803152680397,
                    -1.8375294208526611,
                    0.2125418484210968,
                    0.8782259821891785,
                    -1.3388885259628296,
                    -0.4742933213710785,
                    0.8381997346878052,
                    -1.371089220046997,
                    0.6687695980072021,
                    -0.6312609314918518,
                    -0.8667106628417969,
                    0.9229910969734192,
                    -0.0637219250202179,
                    -0.8621739149093628,
                    0.28511473536491394,
                    0.9568697810173035,
                    -0.777607798576355,
                    -1.248136281967163,
                    -1.4820910692214966,
                    -1.08200204372406,
                    0.12349995970726013,
                    -1.9402209520339966,
                    0.17723523080348969,
                    0.34650567173957825,
                    1.0294759273529053,
                    -2.5830581188201904,
                    0.8690465092658997,
                    -1.0377479791641235,
                    -1.1103545427322388,
                    -1.4357352256774902,
                    -0.45613256096839905,
                    -1.1672130823135376,
                    -0.04712022468447685,
                    0.45766597986221313,
                    -0.7689661383628845,
                    -0.41069096326828003,
                    -0.9194319248199463,
                    0.1723531186580658,
                    0.37858739495277405,
                    0.3607148826122284,
                    -0.2434614896774292,
                    -0.4121379852294922,
                    -0.36285144090652466,
                    -0.0007901997305452824,
                    -0.5820198655128479,
                    -0.9020228385925293,
                    1.1284716129302979,
                    -0.5842194557189941,
                    -0.05847018584609032,
                    -0.0026849149726331234,
                    -0.07288060337305069,
                    -0.02885398268699646,
                    0.01860843412578106,
                    -0.014359825290739536,
                    -0.014346737414598465,
                    0.007220577448606491,
                    -0.03543646261096001,
                    -0.018433941528201103,
                    0.03188855201005936,
                    -0.03577651083469391,
                    -0.021987076848745346,
                    -0.057643163949251175,
                    0.007681531831622124,
                    -0.04055721312761307,
                    -0.0653722956776619,
                    -0.053595468401908875,
                    -0.03224300965666771,
                    0.017793064936995506,
                    -0.5032597780227661,
                    -0.6213571429252625,
                    -0.12812842428684235,
                    -1.0002104043960571,
                    -0.02032293565571308,
                    0.5008907914161682,
                    -0.2587205767631531,
                    -0.29670220613479614,
                    -0.3066011369228363,
                    -0.12362167984247208,
                    -0.3067872226238251,
                    -0.015425820834934711,
                    -0.02706986665725708,
                    0.3810866177082062,
                    0.029070932418107986,
                    -1.1690558195114136,
                    -0.32652121782302856,
                    0.018643535673618317,
                    0.13283081352710724,
                    -0.7383894920349121,
                    -0.42201486229896545,
                    0.3623987138271332,
                    -0.06191759184002876,
                    -0.7268072962760925,
                    0.046490561217069626,
                    0.3022933900356293,
                    -0.19359536468982697,
                    -0.667239248752594,
                    -0.2325112223625183,
                    1.3719661235809326,
                    1.4638419151306152,
                    1.0565805435180664,
                    0.04068577289581299,
                    -1.0131759643554688,
                    -0.03987174108624458,
                    -0.40857142210006714,
                    -0.25607284903526306,
                    1.4865596294403076,
                    -0.6566075682640076,
                    0.10829909145832062,
                    -2.101555109024048,
                    0.11895410716533661,
                    0.6604300141334534,
                    0.6889936923980713,
                    0.019225124269723892,
                    -0.2688843905925751,
                    -0.4358655512332916,
                    -0.7999711036682129,
                    -0.100645050406456,
                    0.45389506220817566,
                    -0.8351598978042603,
                    -1.2325860261917114,
                    0.02904883772134781,
                    0.39801302552223206,
                    -0.09783842414617538,
                    -0.04555825516581535,
                    -0.11332952231168747,
                    1.0276105403900146,
                    1.602290153503418,
                    -0.5088929533958435,
                    -0.305997759103775,
                    -1.980589509010315,
                    -1.3018437623977661,
                    -0.811520516872406,
                    0.0029889277648180723,
                    -0.29158660769462585,
                    0.14894887804985046,
                    -0.8529648184776306,
                    0.9382427930831909,
                    -1.0526807308197021,
                    -0.026872076094150543,
                    -0.46597373485565186,
                    0.03820762410759926,
                    -1.9601426124572754,
                    -0.12538374960422516,
                    -0.6024810075759888,
                    -0.2825465500354767,
                    0.9149814248085022,
                    0.7919614911079407,
                    -1.2325620651245117,
                    0.03125767037272453,
                    1.1984138488769531,
                    -0.8307580351829529,
                    -0.5021837949752808,
                    -0.03784823790192604,
                    -0.23263207077980042,
                    -0.15049239993095398,
                    -0.43844419717788696,
                    0.31098848581314087,
                    -0.31044718623161316,
                    2.3470304012298584,
                    1.373077630996704,
                    0.14719824492931366,
                    -0.5854994058609009,
                    -0.010009893216192722,
                    0.42957422137260437,
                    -0.8146665692329407,
                    -0.13673651218414307,
                    0.10807766020298004,
                    -1.0947303771972656,
                    -1.2307647466659546,
                    -1.0086013078689575,
                    -0.07429914176464081,
                    -0.6346958875656128,
                    -0.04307393357157707,
                    -0.0377170704305172,
                    -0.6038746237754822,
                    1.3170716762542725,
                    -0.3673863410949707,
                    -1.0608303546905518,
                    0.23718252778053284,
                    -2.7760229110717773,
                    0.13345876336097717,
                    -0.3946611285209656,
                    0.33050787448883057,
                    0.4355442523956299,
                    -0.7937942147254944,
                    -0.49616333842277527,
                    0.14557059109210968,
                    -1.5312258005142212,
                    -1.4067105054855347,
                    -2.2090847492218018,
                    -0.36961737275123596,
                    -1.91488778591156,
                    -0.055908408015966415,
                    0.35052162408828735,
                    0.26866987347602844,
                    3.6227474212646484,
                    0.48486366868019104,
                    -0.7211887836456299,
                    0.34266695380210876,
                    -0.2600533962249756,
                    0.03779056668281555,
                    -0.3985501527786255,
                    -0.20617273449897766,
                    -0.2986298203468323,
                    0.06688914448022842,
                    0.7312156558036804,
                    -0.1976204365491867,
                    -0.38651078939437866,
                    -0.3198782205581665,
                    -0.022885998710989952,
                    -0.29041817784309387,
                    -0.25539207458496094,
                    0.043588753789663315,
                    -0.012516739778220654,
                    0.06861195713281631,
                    -0.0026429074350744486,
                    -0.2029862254858017,
                    -0.1904687136411667,
                    -0.25181150436401367,
                    0.028119511902332306,
                    0.0028431378304958344,
                    -0.26816290616989136,
                    -0.04971776157617569,
                    -0.32872965931892395,
                    -0.02456098049879074,
                    0.009636271744966507,
                    -0.3062297999858856,
                    -0.27756771445274353,
                    0.38881757855415344,
                    0.2269841879606247,
                    -1.0384066104888916,
                    0.14996816217899323,
                    -0.022414647042751312,
                    -0.6537978649139404,
                    -0.13967061042785645,
                    -0.8020887970924377,
                    -0.34491103887557983,
                    -1.660811185836792,
                    0.13360022008419037,
                    -1.2890442609786987,
                    0.1590784639120102,
                    -1.639025092124939,
                    0.4336307644844055,
                    -0.09499628841876984,
                    0.12748637795448303,
                    -0.9162958860397339,
                    0.7852943539619446,
                    -0.06059286370873451,
                    -0.26311632990837097,
                    -0.10437288135290146,
                    -0.025593847036361694,
                    -0.5814933180809021,
                    -0.03726030886173248,
                    -0.05549998581409454,
                    0.0689115896821022,
                    -0.8274683952331543,
                    -0.13582287728786469,
                    -0.02950306609272957,
                    0.02787759155035019,
                    -0.06538263708353043,
                    -0.012955852784216404,
                    -0.29429948329925537,
                    -0.2918190360069275,
                    -0.5943119525909424,
                    -0.5012598037719727,
                    -0.4486299157142639,
                    -0.30087214708328247,
                    -0.12791070342063904,
                    -1.2045902013778687,
                    1.656362771987915,
                    0.6387304067611694,
                    -0.5290079116821289,
                    0.03627632185816765,
                    0.18171827495098114,
                    0.06969790905714035,
                    -0.5053080320358276,
                    0.2708885371685028,
                    1.624390721321106,
                    -0.08063080161809921,
                    0.003031710395589471,
                    0.21753759682178497,
                    1.242790699005127,
                    0.23445962369441986,
                    0.2027357965707779,
                    0.9462746381759644,
                    -1.2147114276885986,
                    1.3026227951049805,
                    0.2722470164299011,
                    0.13539765775203705,
                    0.38130486011505127,
                    0.43346112966537476,
                    1.6030300855636597,
                    0.0003416085382923484,
                    0.26960694789886475,
                    0.8926488757133484,
                    1.4626809358596802,
                    1.4481698274612427,
                    1.4397696256637573,
                    0.2746846079826355,
                    1.7494736909866333,
                    -0.05696463957428932,
                    1.3084070682525635,
                    -0.15349328517913818,
                    -0.699660062789917,
                    0.6394473910331726,
                    -0.41654372215270996,
                    1.0531200170516968,
                    0.42934563755989075,
                    0.4864174723625183,
                    0.16810517013072968,
                    0.6965249180793762,
                    1.0700381994247437,
                    0.044456157833337784,
                    -0.2064570188522339,
                    1.5748628377914429,
                    0.5741724371910095,
                    -0.19891896843910217,
                    0.1699158251285553,
                    -0.06079581752419472,
                    0.0031730011105537415,
                    -0.06548966467380524,
                    0.37771183252334595,
                    -0.33435776829719543,
                    0.6950497031211853,
                    0.04525104910135269,
                    0.1648792177438736,
                    -0.12420542538166046,
                    0.4731900990009308,
                    -0.08002273738384247,
                    0.3471054434776306,
                    -0.0015191480051726103,
                    0.35104498267173767,
                    -0.0384305864572525,
                    -0.8866199851036072,
                    -0.30223792791366577,
                    -3.1278679370880127,
                    -0.917117714881897,
                    -0.48450198769569397,
                    0.3704080879688263,
                    -1.8815312385559082,
                    -0.15854939818382263,
                    -0.24654318392276764,
                    0.9105561971664429,
                    -1.4214197397232056,
                    0.6439418792724609,
                    0.8669266700744629,
                    1.0521684885025024,
                    0.8169236779212952,
                    0.4961495101451874,
                    -0.22341297566890717,
                    -0.7887133955955505,
                    0.2150876373052597,
                    -0.06419849395751953,
                    0.27840656042099,
                    0.5093978047370911,
                    1.3969141244888306,
                    -0.4422248601913452,
                    0.6951382756233215,
                    -0.033994853496551514,
                    -1.4162240028381348,
                    0.07604285329580307,
                    -0.1521693915128708,
                    -0.3529605567455292,
                    -0.09129416197538376,
                    0.3932488262653351,
                    -0.4400058388710022,
                    -0.578252911567688,
                    -1.0571788549423218
                ]
            },
            "bias": {
                "rows": 20,
                "columns": 1,
                "weights": [
                    -0.07310440391302109,
                    -0.5449995398521423,
                    0.37555432319641113,
                    -0.11513522267341614,
                    -0.2094373255968094,
                    -0.28759443759918213,
                    -0.5235068202018738,
                    -0.9881141185760498,
                    -0.4675750434398651,
                    0.06661447137594223,
                    0.3013354539871216,
                    -0.24034461379051208,
                    -0.2920861542224884,
                    0.1447659134864807,
                    -0.27144336700439453,
                    -0.18079252541065216,
                    -0.2658877372741699,
                    -0.29207971692085266,
                    -0.08591856062412262,
                    0.03638666495680809
                ]
            }
        },
        {
            "weight": {
                "rows": 20,
                "columns": 20,
                "weights": [
                    1.406245470046997,
                    1.0705339908599854,
                    -0.8947622179985046,
                    0.5638209581375122,
                    0.07434376329183578,
                    -0.3238402307033539,
                    -1.3206080198287964,
                    -0.30951952934265137,
                    1.343189001083374,
                    1.3063435554504395,
                    -0.6474933624267578,
                    -0.3856097459793091,
                    0.01814284548163414,
                    0.3918670415878296,
                    -0.008025090210139751,
                    -1.860098123550415,
                    -0.2694005072116852,
                    -0.44882968068122864,
                    1.9045284986495972,
                    0.06304643303155899,
                    -1.0243226289749146,
                    -0.03353380411863327,
                    -0.08079216629266739,
                    0.5234219431877136,
                    -0.030140183866024017,
                    0.26604723930358887,
                    -0.32034623622894287,
                    0.04358435049653053,
                    -0.16819539666175842,
                    -0.06734418869018555,
                    -0.11291825771331787,
                    -0.07906174659729004,
                    0.05128907039761543,
                    -0.32364752888679504,
                    -0.29219287633895874,
                    -0.3243343234062195,
                    -0.16892074048519135,
                    -0.5604144334793091,
                    -0.5896484851837158,
                    -0.054185159504413605,
                    -0.05472727492451668,
                    -0.2790321409702301,
                    -0.35400390625,
                    0.05607914552092552,
                    -0.04431530460715294,
                    -0.2459629625082016,
                    0.06337691098451614,
                    -0.3357573449611664,
                    -0.28395113348960876,
                    -0.36317262053489685,
                    0.03085966967046261,
                    -0.35212165117263794,
                    0.025768520310521126,
                    -0.27806881070137024,
                    0.06043088063597679,
                    -0.21721835434436798,
                    -0.29361045360565186,
                    -0.5047480463981628,
                    -0.27644622325897217,
                    -0.31109219789505005,
                    -3.9129104614257812,
                    -0.5727702379226685,
                    -1.1401139497756958,
                    0.5409967303276062,
                    -0.0563524104654789,
                    0.6004605889320374,
                    0.1742653250694275,
                    0.3682730495929718,
                    -0.7972055077552795,
                    -0.9366639852523804,
                    -1.1762958765029907,
                    1.4250714778900146,
                    0.10430499166250229,
                    -1.5065950155258179,
                    -0.2635286748409271,
                    -2.5811243057250977,
                    -1.1169320344924927,
                    -0.5412641763687134,
                    -0.45653027296066284,
                    -1.609009861946106,
                    -0.600350558757782,
                    -0.9545390009880066,
                    -0.7976545095443726,
                    0.24727223813533783,
                    0.04400153085589409,
                    -0.1990070939064026,
                    0.9626526236534119,
                    0.0906616598367691,
                    -0.1454496830701828,
                    -1.22959303855896,
                    -1.3743317127227783,
                    0.4519140124320984,
                    0.34605735540390015,
                    -1.8939428329467773,
                    0.015151514671742916,
                    -0.33629167079925537,
                    -0.6787339448928833,
                    1.0017344951629639,
                    2.381457567214966,
                    -1.0930432081222534,
                    0.7517154216766357,
                    -0.3329542875289917,
                    -0.31171277165412903,
                    0.451220840215683,
                    0.07283034920692444,
                    -0.5319530963897705,
                    -0.07810071110725403,
                    -1.0440938472747803,
                    0.8672249913215637,
                    -0.21714574098587036,
                    0.35521945357322693,
                    -1.7502659559249878,
                    -0.029687434434890747,
                    0.6702589988708496,
                    0.508488655090332,
                    0.028526661917567253,
                    -0.5359683632850647,
                    -1.116166353225708,
                    -1.0791494846343994,
                    -2.8682894706726074,
                    0.41695332527160645,
                    -0.27433741092681885,
                    0.16668683290481567,
                    0.06959399580955505,
                    -0.060118868947029114,
                    -0.5247318148612976,
                    -0.3259351849555969,
                    -0.6001555919647217,
                    -0.9947307705879211,
                    0.09053505212068558,
                    0.10826785117387772,
                    -0.35450899600982666,
                    -0.10338415950536728,
                    0.06664467602968216,
                    0.05312550812959671,
                    -0.39613768458366394,
                    -0.5862146019935608,
                    -0.15221789479255676,
                    0.1187916174530983,
                    0.062407154589891434,
                    0.1279880404472351,
                    0.01836402900516987,
                    -0.13210898637771606,
                    0.08546192198991776,
                    -0.013481145724654198,
                    -0.4064585864543915,
                    0.41388654708862305,
                    0.743535578250885,
                    0.9396517872810364,
                    -1.6606090068817139,
                    -0.9583244323730469,
                    -0.5540518760681152,
                    -0.021080097183585167,
                    0.9656416177749634,
                    0.3486540615558624,
                    -1.380587100982666,
                    -0.841867208480835,
                    -0.9544580578804016,
                    -1.275181531906128,
                    -0.143386110663414,
                    -0.5760771036148071,
                    0.05426042526960373,
                    -0.13895830512046814,
                    -0.4148135483264923,
                    -0.01711535081267357,
                    -0.42098480463027954,
                    0.06008891761302948,
                    -0.10920009762048721,
                    -0.3124220073223114,
                    -0.4169183671474457,
                    -0.13408425450325012,
                    -0.3078239858150482,
                    0.04217427223920822,
                    -0.2628308832645416,
                    0.041437480598688126,
                    -0.3647097945213318,
                    -0.44688698649406433,
                    -0.8155133724212646,
                    -0.5328838229179382,
                    -0.39526304602622986,
                    0.4420624375343323,
                    -0.3609198331832886,
                    -0.6202644109725952,
                    -0.32099300622940063,
                    0.06708677113056183,
                    0.07182393223047256,
                    -0.07111232727766037,
                    -0.3004002571105957,
                    -0.26402777433395386,
                    -0.4816439747810364,
                    -0.27559807896614075,
                    -0.24748040735721588,
                    0.07116902619600296,
                    -0.5728471875190735,
                    0.018360937014222145,
                    -0.8718633651733398,
                    -0.3547213077545166,
                    0.09631740301847458,
                    -0.4782685935497284,
                    -0.5285890102386475,
                    0.12059074640274048,
                    -0.012463077902793884,
                    -0.008318155072629452,
                    -0.32626068592071533,
                    0.007548756897449493,
                    -0.3177582323551178,
                    -0.0404830165207386,
                    -0.30487683415412903,
                    -0.5717170834541321,
                    -0.30716851353645325,
                    -0.11361721903085709,
                    -0.07192448526620865,
                    -0.16051450371742249,
                    -0.20623540878295898,
                    0.03774970769882202,
                    -0.10008665174245834,
                    -0.689723551273346,
                    -0.5495718717575073,
                    0.20873525738716125,
                    -0.057088520377874374,
                    -1.6185662746429443,
                    -0.8599964380264282,
                    -0.9745478630065918,
                    -0.8205404281616211,
                    0.059700533747673035,
                    -0.7359859943389893,
                    0.8216001987457275,
                    -0.7953131794929504,
                    1.2044318914413452,
                    0.36059287190437317,
                    0.018024805933237076,
                    0.37940800189971924,
                    -0.029224112629890442,
                    -0.8633803129196167,
                    0.034386709332466125,
                    -0.9155578017234802,
                    -2.3186566829681396,
                    -0.6587753891944885,
                    0.3857002556324005,
                    -0.5746846795082092,
                    -0.3243189752101898,
                    0.22367364168167114,
                    -1.9213956594467163,
                    1.5627989768981934,
                    -0.03788750618696213,
                    -0.23423461616039276,
                    0.14988969266414642,
                    -1.5720614194869995,
                    -0.22620895504951477,
                    0.835182785987854,
                    -1.0393588542938232,
                    -0.4208410978317261,
                    0.047889988869428635,
                    -0.13029788434505463,
                    -0.03851950541138649,
                    0.06478367745876312,
                    1.6362159252166748,
                    -1.6966663599014282,
                    1.0632729530334473,
                    -1.8550736904144287,
                    -0.6810598373413086,
                    0.33366870880126953,
                    -0.0690774992108345,
                    -0.1237085685133934,
                    -0.01967812143266201,
                    -0.031564224511384964,
                    0.4343841075897217,
                    -1.164215326309204,
                    -0.3400493562221527,
                    -0.2161007672548294,
                    -0.7505017518997192,
                    -0.042055241763591766,
                    -0.030229441821575165,
                    -0.0742240622639656,
                    -0.04872081056237221,
                    -0.35884007811546326,
                    -0.719719648361206,
                    0.24545225501060486,
                    -0.5693923830986023,
                    0.1583118885755539,
                    0.7638124227523804,
                    -0.8431949615478516,
                    -1.4476138353347778,
                    0.9453129172325134,
                    0.04801996424794197,
                    -0.006556769832968712,
                    -0.5482624769210815,
                    1.464200735092163,
                    -1.984033226966858,
                    -4.230774879455566,
                    -1.3257412910461426,
                    -0.33037617802619934,
                    0.17880302667617798,
                    -2.5099127292633057,
                    0.03670591488480568,
                    1.463499903678894,
                    -1.2470269203186035,
                    0.7519466280937195,
                    0.5260730981826782,
                    -0.6758010387420654,
                    -2.17622709274292,
                    0.718498945236206,
                    -1.2891783714294434,
                    -0.3028709590435028,
                    0.040674399584531784,
                    0.035477615892887115,
                    1.7487848997116089,
                    -0.9851488471031189,
                    0.8721004128456116,
                    2.356058120727539,
                    -1.1591507196426392,
                    0.22712001204490662,
                    0.5461581945419312,
                    1.8165194988250732,
                    -0.4348059296607971,
                    -0.4433213770389557,
                    0.13514511287212372,
                    0.5515274405479431,
                    1.9831169843673706,
                    -0.4369087815284729,
                    -0.4214712083339691,
                    0.0056134476326406,
                    -1.1357238292694092,
                    -1.3027971982955933,
                    -0.017044369131326675,
                    0.0896310806274414,
                    -0.16346774995326996,
                    -0.5059834718704224,
                    -0.2970165014266968,
                    -0.23698455095291138,
                    -0.5946681499481201,
                    -0.3864668011665344,
                    0.06491631269454956,
                    -1.1836473941802979,
                    0.02036656066775322,
                    -0.5579586625099182,
                    0.33767691254615784,
                    -1.5934247970581055,
                    0.26525571942329407,
                    -0.6833022236824036,
                    0.45778021216392517,
                    0.13895486295223236,
                    -0.40932637453079224,
                    -0.7948922514915466,
                    0.04493282735347748,
                    -0.42502549290657043,
                    -0.13196156919002533,
                    -0.6635663509368896,
                    -0.29962292313575745,
                    -0.05006532371044159,
                    0.15681201219558716,
                    0.09950372576713562,
                    -0.07614895701408386,
                    -0.41252174973487854,
                    -0.06789658218622208,
                    -0.4218662679195404,
                    -1.2340930700302124,
                    -0.8256718516349792,
                    -0.634332001209259,
                    -0.3071616590023041,
                    -0.7858737707138062,
                    -0.5564853549003601,
                    -0.18136177957057953,
                    0.23276890814304352,
                    -0.023612432181835175,
                    0.01189274713397026,
                    1.4676584005355835,
                    -0.4283963143825531,
                    0.30732157826423645,
                    -0.2434869110584259,
                    -0.48930948972702026,
                    -0.18881981074810028,
                    -0.020178254693746567,
                    -0.8487183451652527,
                    -0.0663670003414154,
                    -0.5357189178466797,
                    -0.28553593158721924,
                    -0.29664701223373413,
                    0.6124166250228882,
                    -1.7193037271499634,
                    0.06405799090862274,
                    -0.2915131449699402,
                    -0.06068436801433563,
                    -0.16480208933353424,
                    0.05438261479139328,
                    -0.3131141662597656,
                    -0.07451526820659637,
                    -0.34196045994758606,
                    -0.33467739820480347,
                    -0.3477914035320282,
                    -0.14470282196998596,
                    -0.554047703742981,
                    0.06411033123731613,
                    0.006171467248350382,
                    0.0015144458739086986,
                    -0.22685940563678741,
                    -0.04380292817950249,
                    -0.48648107051849365,
                    -0.35104644298553467,
                    -0.3195730149745941
                ]
            },
            "transition": {
                "rows": 20,
                "columns": 20,
                "weights": [
                    0.8609662055969238,
                    -1.5211631059646606,
                    0.25167351961135864,
                    -1.0301268100738525,
                    -0.12162581086158752,
                    3.843977689743042,
                    0.2934693992137909,
                    -0.3025832176208496,
                    -0.5528609156608582,
                    0.013727826066315174,
                    0.3071253299713135,
                    -1.0263104438781738,
                    0.13023830950260162,
                    -0.9213833808898926,
                    -0.3104701042175293,
                    -0.6286317110061646,
                    0.4841437041759491,
                    -0.0834728255867958,
                    -0.26166850328445435,
                    0.2707594931125641,
                    -0.37089988589286804,
                    -0.3158821761608124,
                    -0.029122918844223022,
                    -0.9327583312988281,
                    -0.4409852623939514,
                    -0.4152936637401581,
                    -0.01646280288696289,
                    -0.3291947841644287,
                    -0.04571717604994774,
                    -0.07672064751386642,
                    -0.046856265515089035,
                    -0.42754870653152466,
                    -0.06951924413442612,
                    -0.014374307356774807,
                    -0.8431167602539062,
                    -0.11847573518753052,
                    -0.3338147699832916,
                    -0.020197734236717224,
                    0.02172801084816456,
                    -0.04963214695453644,
                    -0.5823960304260254,
                    -0.0348631888628006,
                    0.04714149981737137,
                    -0.026415694504976273,
                    -0.22164437174797058,
                    -0.0344693660736084,
                    -0.010856403969228268,
                    -0.2261582463979721,
                    -0.3491833508014679,
                    0.013269953429698944,
                    -0.021203113719820976,
                    -0.3274741470813751,
                    -0.27217063307762146,
                    0.01221249159425497,
                    -0.005928754340857267,
                    -0.05754316598176956,
                    -0.042235273867845535,
                    -0.02364317700266838,
                    0.028567777946591377,
                    0.06351766735315323,
                    -0.3631063401699066,
                    -0.8430007100105286,
                    0.035461630672216415,
                    -2.0526516437530518,
                    -1.0861036777496338,
                    0.8014665842056274,
                    0.2833918035030365,
                    -0.23919250071048737,
                    -0.003596204100176692,
                    -0.3708231449127197,
                    0.03139020502567291,
                    -0.42893558740615845,
                    0.11651092022657394,
                    -0.2156761884689331,
                    -2.017801284790039,
                    0.09201968461275101,
                    0.15238258242607117,
                    0.5542832016944885,
                    -0.445781409740448,
                    0.06801945716142654,
                    -1.1960383653640747,
                    -0.45497119426727295,
                    -0.037469275295734406,
                    1.71585214138031,
                    -1.5115052461624146,
                    0.6119537353515625,
                    -0.08239825069904327,
                    -0.4158211052417755,
                    -0.5110601782798767,
                    0.4673234820365906,
                    -0.04556608945131302,
                    -1.1113225221633911,
                    0.6681169867515564,
                    -0.33090740442276,
                    -0.5096593499183655,
                    -0.2655566930770874,
                    -0.4746827185153961,
                    -0.14702118933200836,
                    -1.8106828927993774,
                    -0.20224952697753906,
                    -1.4538726806640625,
                    0.280582994222641,
                    0.04326453432440758,
                    0.0336277075111866,
                    -3.8936924934387207,
                    -0.19642050564289093,
                    -0.046277474611997604,
                    -0.9666379690170288,
                    -0.5358812212944031,
                    -0.24575021862983704,
                    0.0011884034611284733,
                    -0.019097886979579926,
                    0.4494386613368988,
                    0.10950816422700882,
                    -1.7386330366134644,
                    -0.11901319772005081,
                    0.13552232086658478,
                    0.3339819312095642,
                    0.23882301151752472,
                    -0.29903626441955566,
                    -0.29697301983833313,
                    -0.4401372969150543,
                    -0.07372033596038818,
                    -0.6320637464523315,
                    -0.4149313271045685,
                    0.19900265336036682,
                    0.4979408085346222,
                    -0.8799067139625549,
                    -0.3228733539581299,
                    -0.02112753689289093,
                    0.015194728039205074,
                    0.010586895048618317,
                    -0.5513835549354553,
                    -0.011841336265206337,
                    -0.15748047828674316,
                    -0.21255826950073242,
                    -0.5969231128692627,
                    0.3043731451034546,
                    -0.0021121902391314507,
                    0.07384846359491348,
                    1.0849627256393433,
                    -0.553389847278595,
                    0.2719327211380005,
                    -0.5867655277252197,
                    0.21959666907787323,
                    0.2543671131134033,
                    0.36733442544937134,
                    -0.790316104888916,
                    -0.27669593691825867,
                    -0.23222646117210388,
                    -0.011258901096880436,
                    0.004946931730955839,
                    1.0065618753433228,
                    -0.4091745615005493,
                    1.020001769065857,
                    -1.161253571510315,
                    0.2624833881855011,
                    0.11943171918392181,
                    -0.23178675770759583,
                    -0.04826130345463753,
                    -0.2069087028503418,
                    -0.04063555598258972,
                    -0.24086764454841614,
                    -0.017405247315764427,
                    -0.16990463435649872,
                    -0.01884189061820507,
                    0.3139040172100067,
                    -0.28362539410591125,
                    -0.05605074763298035,
                    -0.05909685790538788,
                    0.22238638997077942,
                    0.2663995325565338,
                    -0.09462810307741165,
                    -0.0049272868782281876,
                    -0.34588661789894104,
                    0.09551563113927841,
                    0.03237644210457802,
                    -0.29185202717781067,
                    -0.07281864434480667,
                    0.027087250724434853,
                    0.1047610267996788,
                    -0.227587029337883,
                    -0.015531069599092007,
                    -0.06495018303394318,
                    -0.21486836671829224,
                    -0.3546426594257355,
                    0.05925847589969635,
                    -0.3882019817829132,
                    -0.021978870034217834,
                    -0.21873611211776733,
                    -0.02747884765267372,
                    0.14485636353492737,
                    -0.3114059269428253,
                    0.002961341757327318,
                    -0.522890567779541,
                    -0.46148720383644104,
                    -0.2782329320907593,
                    -0.48327553272247314,
                    -0.1011284664273262,
                    -0.06217467039823532,
                    0.0021604448556900024,
                    -0.3320751190185547,
                    0.03919005021452904,
                    -0.23974758386611938,
                    -0.09757423400878906,
                    0.13875167071819305,
                    0.1326047033071518,
                    -0.46804749965667725,
                    -0.3507300317287445,
                    -0.050312940031290054,
                    -0.014443701133131981,
                    0.29105621576309204,
                    -0.2615790069103241,
                    -0.06236102804541588,
                    -0.23399463295936584,
                    -0.09325962513685226,
                    -0.34276723861694336,
                    0.23090162873268127,
                    -0.0018416368402540684,
                    0.07328077405691147,
                    0.6010859608650208,
                    -1.3939182758331299,
                    -0.2777407169342041,
                    -1.1032085418701172,
                    1.205208659172058,
                    -1.2550469636917114,
                    0.6167352199554443,
                    -0.8400022387504578,
                    -0.18961457908153534,
                    -0.8287540674209595,
                    0.16842684149742126,
                    0.2567240297794342,
                    -0.5629634857177734,
                    0.26227495074272156,
                    1.1935787200927734,
                    -0.23427759110927582,
                    -0.11964818835258484,
                    -0.3088579475879669,
                    0.08541564643383026,
                    0.7746748924255371,
                    -1.0126549005508423,
                    -0.5935095548629761,
                    -0.22620658576488495,
                    -0.3807898461818695,
                    -0.4341464638710022,
                    -1.7508774995803833,
                    0.33736690878868103,
                    0.849435031414032,
                    -0.2274366319179535,
                    0.3611035645008087,
                    0.20304155349731445,
                    1.5682809352874756,
                    -0.5057350397109985,
                    -0.37852680683135986,
                    0.2994723618030548,
                    0.8023104071617126,
                    -0.25047600269317627,
                    -0.48473089933395386,
                    -0.19541220366954803,
                    0.22537000477313995,
                    -0.2421192228794098,
                    -0.7551264762878418,
                    -0.055557217448949814,
                    1.9821280241012573,
                    -0.8986786007881165,
                    -2.4130163192749023,
                    0.029800869524478912,
                    -0.4376237690448761,
                    -0.06400390714406967,
                    -0.0661979541182518,
                    -0.06570938229560852,
                    -0.20342868566513062,
                    -0.30639228224754333,
                    -0.508152961730957,
                    -1.2966653108596802,
                    -0.9484637975692749,
                    -1.2424489259719849,
                    -0.12420818209648132,
                    0.0292604248970747,
                    -0.028651198372244835,
                    1.8117592334747314,
                    -0.9191433787345886,
                    -0.06632860749959946,
                    -2.9566447734832764,
                    0.3148255944252014,
                    0.02560618706047535,
                    -0.5805698037147522,
                    -0.7330072522163391,
                    -0.1291227489709854,
                    0.47378140687942505,
                    -0.06716457009315491,
                    -0.2584061324596405,
                    1.414863109588623,
                    -0.9171757698059082,
                    -0.36160534620285034,
                    -0.14150099456310272,
                    0.47621506452560425,
                    0.03057112544775009,
                    -2.1522557735443115,
                    -0.32702890038490295,
                    0.38150063157081604,
                    -0.5409783124923706,
                    0.0417383648455143,
                    2.2378644943237305,
                    0.16984839737415314,
                    0.4062749445438385,
                    -0.043863896280527115,
                    -0.3218507468700409,
                    0.010173511691391468,
                    0.2831558585166931,
                    0.08069594204425812,
                    0.03449912369251251,
                    1.7831722497940063,
                    0.12643401324748993,
                    -2.585866689682007,
                    -0.4640730321407318,
                    0.39012566208839417,
                    -0.576249897480011,
                    0.3363327085971832,
                    -0.41479989886283875,
                    -0.913081705570221,
                    -0.49049660563468933,
                    0.007119264919310808,
                    0.007031963672488928,
                    -0.8300285935401917,
                    -0.009812534786760807,
                    0.006904194597154856,
                    -0.13255806267261505,
                    0.06590104103088379,
                    -0.015454456210136414,
                    0.013714385218918324,
                    -1.55377995967865,
                    0.14570772647857666,
                    0.132219135761261,
                    -0.9849201440811157,
                    -0.7374247312545776,
                    -0.02763119526207447,
                    -0.5404207706451416,
                    -0.29971954226493835,
                    -0.005584048572927713,
                    0.10296394675970078,
                    -0.39282071590423584,
                    0.03868081793189049,
                    -0.06351985782384872,
                    -0.8765628337860107,
                    -0.044033873826265335,
                    0.23458519577980042,
                    -0.46467095613479614,
                    -0.2534657120704651,
                    0.2963632345199585,
                    0.21951238811016083,
                    -0.2782657742500305,
                    -0.11944229900836945,
                    -0.07067794352769852,
                    -0.26849400997161865,
                    -0.07172288745641708,
                    0.6237480640411377,
                    -1.2608625888824463,
                    -0.02017924003303051,
                    0.579188346862793,
                    -1.8989713191986084,
                    -0.25378143787384033,
                    -0.06616798043251038,
                    -0.2282761037349701,
                    -0.07883480191230774,
                    -6.869317054748535,
                    -0.06651006639003754,
                    0.35560503602027893,
                    -0.2967613935470581,
                    0.01425042375922203,
                    0.04865129664540291,
                    0.03138573467731476,
                    0.8408834338188171,
                    -0.05469302088022232,
                    -0.2415929138660431,
                    0.42746642231941223,
                    -0.027906805276870728,
                    -0.12192566692829132,
                    -1.0440351963043213,
                    -0.04513120278716087,
                    -0.3580749034881592,
                    -0.23121169209480286,
                    -0.04058099538087845,
                    -0.02886580117046833,
                    -0.3674176037311554,
                    0.04951728507876396,
                    0.06947344541549683,
                    -0.5104385018348694,
                    -0.06773211807012558,
                    0.013721304945647717,
                    0.023600853979587555,
                    -0.5564388632774353,
                    0.005279085598886013,
                    0.05636034533381462,
                    -0.8146857023239136,
                    -0.3496952950954437,
                    -0.017100859433412552,
                    -0.06791543960571289,
                    0.02120080590248108,
                    -0.002237055916339159
                ]
            },
            "bias": {
                "rows": 20,
                "columns": 1,
                "weights": [
                    -0.5915260910987854,
                    -0.21568845212459564,
                    -0.29281750321388245,
                    -0.7668057084083557,
                    -0.7695913910865784,
                    -0.2570582330226898,
                    -0.5914141535758972,
                    -1.7478690147399902,
                    -0.2596743702888489,
                    -0.312636137008667,
                    -0.29208576679229736,
                    -0.6990063190460205,
                    -0.2204604148864746,
                    -0.42654848098754883,
                    -1.2980446815490723,
                    0.15728768706321716,
                    -0.30170419812202454,
                    -0.12320533394813538,
                    -0.03938383609056473,
                    0
                ]
            }
        }
    ],
    "outputConnector": {
        "rows": 6,
        "columns": 20,
        "weights": [
            -1.8227019309997559,
            -6.2748026847839355,
            -0.5864052772521973,
            -7.563003063201904,
            1.5716687440872192,
            -0.13456787168979645,
            0.050021227449178696,
            -0.22162500023841858,
            0.059624310582876205,
            -0.5866214632987976,
            0.07096167653799057,
            0.3388942778110504,
            -2.000767230987549,
            0.09485124796628952,
            -0.6386335492134094,
            1.0605489015579224,
            -7.044539928436279,
            0.18356429040431976,
            0.8893612623214722,
            -0.4429328441619873,
            -0.7803362011909485,
            -0.41047170758247375,
            -0.3182278275489807,
            0.40619969367980957,
            -0.996136486530304,
            -0.7553263306617737,
            0.31794407963752747,
            -2.174995183944702,
            -0.07710205018520355,
            -0.1407167613506317,
            -0.12782306969165802,
            -0.522959291934967,
            -2.1151041984558105,
            -0.1597905457019806,
            -2.3717501163482666,
            -1.0206552743911743,
            -0.5352981090545654,
            -0.48642462491989136,
            -0.5133283734321594,
            -0.5774114727973938,
            -0.9051543474197388,
            -0.22268889844417572,
            -0.17449676990509033,
            -0.09134803712368011,
            -0.6942437291145325,
            0.12752559781074524,
            0.29063162207603455,
            -1.7416150569915771,
            -0.024723783135414124,
            0.3248664140701294,
            0.19281482696533203,
            -1.3429900407791138,
            -2.108823537826538,
            -0.12684905529022217,
            -2.3797850608825684,
            -1.0209988355636597,
            -0.02227964997291565,
            0.3364858329296112,
            -0.5303395390510559,
            -0.41642463207244873,
            2.216013193130493,
            -6.077803611755371,
            0.03439893200993538,
            -7.789985656738281,
            0.23761369287967682,
            -3.577625036239624,
            -0.6484629511833191,
            -0.9506305456161499,
            0.23216009140014648,
            -0.46819496154785156,
            0.545583188533783,
            0.722623348236084,
            0.9467364549636841,
            -3.358039617538452,
            1.2449612617492676,
            0.7218360304832458,
            -5.747585296630859,
            0.005918165668845177,
            -1.2840948104858398,
            -0.20804663002490997,
            0.502495288848877,
            -6.187534809112549,
            0.04749104008078575,
            -5.815230846405029,
            -0.7183225154876709,
            -1.2766607999801636,
            0.07021617144346237,
            1.6444759368896484,
            0.1807798147201538,
            -0.1563800871372223,
            -0.11243445426225662,
            1.2288553714752197,
            -0.7857567071914673,
            -8.687614440917969,
            2.081591844558716,
            0.3021841049194336,
            -13.078672409057617,
            -0.3348411023616791,
            0.05210849270224571,
            0.012294922024011612,
            -1.972044825553894,
            -9.42612075805664,
            -0.19959042966365814,
            -11.15286922454834,
            -1.1864114999771118,
            -9.487635612487793,
            -0.39211463928222656,
            -1.1745203733444214,
            -0.47845423221588135,
            -0.7103102207183838,
            -0.2216808795928955,
            -0.8586214780807495,
            -1.2862926721572876,
            -4.839006423950195,
            -1.9356610774993896,
            -0.9043576717376709,
            -4.999666213989258,
            -0.6856220960617065,
            -0.13991299271583557,
            -0.6383002996444702
        ]
    },
    "output": {
        "rows": 6,
        "columns": 1,
        "weights": [
            -14.444849014282227,
            0.8483142256736755,
            0.8683136701583862,
            -16.266956329345703,
            -17.32684898376465,
            -13.703110694885254
        ]
    }
}